{"learner":{"attributes":{"best_iteration":"134","best_score":"0.09444855886614946","scikit_learn":"{\"_estimator_type\": \"classifier\"}"},"feature_names":["income","name_email_similarity","prev_address_months_count","current_address_months_count","days_since_request","intended_balcon_amount","zip_count_4w","velocity_6h","velocity_24h","velocity_4w","bank_branch_count_8w","date_of_birth_distinct_emails_4w","credit_risk_score","bank_months_count","proposed_credit_limit","session_length_in_minutes","device_distinct_emails_8w","customer_age_10","customer_age_20","customer_age_30","customer_age_40","customer_age_50","customer_age_60","customer_age_70","customer_age_80","customer_age_90","payment_type_AA","payment_type_AB","payment_type_AC","payment_type_AD","payment_type_AE","employment_status_CA","employment_status_CB","employment_status_CC","employment_status_CD","employment_status_CE","employment_status_CF","employment_status_CG","housing_status_BA","housing_status_BB","housing_status_BC","housing_status_BD","housing_status_BE","housing_status_BF","housing_status_BG","source_INTERNET","source_TELEAPP","device_os_linux","device_os_macintosh","device_os_other","device_os_windows","device_os_x11","month_0","month_1","month_2","month_3","month_4","month_5","month_6","month_7"],"feature_types":["float","float","float","float","float","float","float","float","float","float","float","float","float","float","float","float","float","float","float","float","float","float","float","float","float","float","float","float","float","float","float","float","float","float","float","float","float","float","float","float","float","float","float","float","float","float","float","float","float","float","float","float","float","float","float","float","float","float","float","float"],"gradient_booster":{"model":{"gbtree_model_param":{"num_parallel_tree":"1","num_trees":"155"},"iteration_indptr":[0,1,2,3,4,5,6,7,8,9,10,11,12,13,14,15,16,17,18,19,20,21,22,23,24,25,26,27,28,29,30,31,32,33,34,35,36,37,38,39,40,41,42,43,44,45,46,47,48,49,50,51,52,53,54,55,56,57,58,59,60,61,62,63,64,65,66,67,68,69,70,71,72,73,74,75,76,77,78,79,80,81,82,83,84,85,86,87,88,89,90,91,92,93,94,95,96,97,98,99,100,101,102,103,104,105,106,107,108,109,110,111,112,113,114,115,116,117,118,119,120,121,122,123,124,125,126,127,128,129,130,131,132,133,134,135,136,137,138,139,140,141,142,143,144,145,146,147,148,149,150,151,152,153,154,155],"tree_info":[0,0,0,0,0,0,0,0,0,0,0,0,0,0,0,0,0,0,0,0,0,0,0,0,0,0,0,0,0,0,0,0,0,0,0,0,0,0,0,0,0,0,0,0,0,0,0,0,0,0,0,0,0,0,0,0,0,0,0,0,0,0,0,0,0,0,0,0,0,0,0,0,0,0,0,0,0,0,0,0,0,0,0,0,0,0,0,0,0,0,0,0,0,0,0,0,0,0,0,0,0,0,0,0,0,0,0,0,0,0,0,0,0,0,0,0,0,0,0,0,0,0,0,0,0,0,0,0,0,0,0,0,0,0,0,0,0,0,0,0,0,0,0,0,0,0,0,0,0,0,0,0,0,0,0],"trees":[{"base_weights":[-4.6641016E-4,-9.852721E-1,1.2490746E0,-1.5284729E0,-2.7819648E-2,4.1860938E-1,1.6355484E0,-1.6355475E0,-1.1333278E0,9.999141E-2,-4.785097E-1,9.998871E-2,2.3378933E-2,9.999609E-2,1.5014381E0,-1.8527274E0,-1.5083753E0,9.9961944E-2,-1.5173146E0,-1.4136571E0,-2.5757763E-1,5.485838E-1,-5.042947E-1,9.999348E-2,1.3603845E0,-9.544024E-2,-8.637573E-2,-8.3799355E-2,-5.956423E-2,-8.853304E-2,-6.738182E-2,-7.946702E-2,-4.524064E-2,-1.697506E-3,-7.224332E-2,3.7508946E-2,-3.7674617E-2,1.9102303E-2,-3.9418515E-2,7.176676E-2,8.141538E-3],"categories":[],"categories_nodes":[],"categories_segments":[],"categories_sizes":[],"default_left":[0,0,0,0,0,0,0,0,0,0,0,0,0,0,0,0,0,0,0,0,0,0,0,0,0,0,0,0,0,0,0,0,0,0,0,0,0,0,0,0,0],"id":0,"left_children":[1,3,5,7,9,11,13,15,17,-1,19,-1,21,-1,23,25,27,-1,29,31,33,35,37,-1,39,-1,-1,-1,-1,-1,-1,-1,-1,-1,-1,-1,-1,-1,-1,-1,-1],"loss_changes":[3.891584E5,9.1981984E4,4.473633E4,4.772375E3,5.850458E4,2.7664113E4,4.6451875E3,2.4492344E3,2.8945148E4,0E0,1.0821193E4,0E0,9.815491E3,0E0,4.8859062E3,2.2689062E2,2.9741953E3,0E0,9.190117E2,8.9336523E2,1.1249562E4,4.659866E3,4.448698E3,0E0,4.8646016E3,0E0,0E0,0E0,0E0,0E0,0E0,0E0,0E0,0E0,0E0,0E0,0E0,0E0,0E0,0E0,0E0],"parents":[2147483647,0,0,1,1,2,2,3,3,4,4,5,5,6,6,7,7,8,8,10,10,12,12,14,14,15,15,16,16,18,18,19,19,20,20,21,21,22,22,24,24],"right_children":[2,4,6,8,10,12,14,16,18,-1,20,-1,22,-1,24,26,28,-1,30,32,34,36,38,-1,40,-1,-1,-1,-1,-1,-1,-1,-1,-1,-1,-1,-1,-1,-1,-1,-1],"split_conditions":[3.881643E-3,3.8409655E-3,3.8409655E-3,8.201377E-1,9.962338E-1,9.9589545E-1,9.962338E-1,-5.972523E-1,1.1611785E0,9.999141E-2,-7.654348E-1,9.998871E-2,-6.015818E-1,9.999609E-2,9.9589545E-1,-7.654348E-1,4.1286033E-3,9.9961944E-2,-5.972523E-1,8.201377E-1,9.961923E-1,9.961062E-1,-3.9893126E-1,9.999348E-2,9.961062E-1,-9.544024E-2,-8.637573E-2,-8.3799355E-2,-5.956423E-2,-8.853304E-2,-6.738182E-2,-7.946702E-2,-4.524064E-2,-1.697506E-3,-7.224332E-2,3.7508946E-2,-3.7674617E-2,1.9102303E-2,-3.9418515E-2,7.176676E-2,8.141538E-3],"split_indices":[38,50,50,0,50,38,50,3,0,0,3,0,1,0,38,3,40,0,3,0,42,26,10,0,26,0,0,0,0,0,0,0,0,0,0,0,0,0,0,0,0],"split_type":[0,0,0,0,0,0,0,0,0,0,0,0,0,0,0,0,0,0,0,0,0,0,0,0,0,0,0,0,0,0,0,0,0,0,0,0,0,0,0,0,0],"sum_hessian":[3.1624425E5,1.7685725E5,1.39387E5,1.1283875E5,6.40185E4,4.4267E4,9.512E4,8.877875E4,2.406E4,1.164125E4,5.237725E4,8.8515E3,3.54155E4,2.5587E4,6.9533E4,3.278175E4,5.5997E4,2.62675E3,2.143325E4,1.00085E4,4.236875E4,1.774925E4,1.766625E4,1.533425E4,5.419875E4,2.263175E4,1.015E4,3.663025E4,1.936675E4,8.59325E3,1.284E4,7.43825E3,2.57025E3,3.565425E4,6.7145E3,1.537E4,2.37925E3,4.28775E3,1.33785E4,5.100625E4,3.1925E3],"tree_param":{"num_deleted":"0","num_feature":"60","num_nodes":"41","size_leaf_vector":"1"}},{"base_weights":[-1.5825549E-3,-9.385999E-1,1.18872E0,-1.4561718E0,-2.7893294E-2,3.9620712E-1,1.5571461E0,-1.5925529E0,-1.1165842E0,9.523408E-2,-4.5663682E-1,9.523157E-2,2.0744892E-2,9.523832E-2,1.4291883E0,-1.8377243E0,-1.5136192E0,2.0432692E0,-1.3537878E0,-7.962349E-1,2.789053E-1,-4.963874E-1,7.5181735E-1,1.4774915E0,-1.3897711E-1,-9.275535E-2,-8.316696E-2,-8.420001E-2,-6.351491E-2,1.03810504E-1,9.885141E-2,-7.536393E-2,-3.8584463E-2,-1.7943656E-2,-5.7426196E-2,1.00593604E-1,-5.3517236E-3,2.2313627E-3,-4.459351E-2,9.922013E-2,2.2902831E-2,9.523584E-2,6.7731254E-2,9.484015E-2,-2.0043895E-2],"categories":[],"categories_nodes":[],"categories_segments":[],"categories_sizes":[],"default_left":[0,0,0,0,0,0,0,0,0,0,0,0,0,0,0,0,0,0,0,0,0,0,0,0,0,0,0,0,0,0,0,0,0,0,0,0,0,0,0,0,0,0,0,0,0],"id":1,"left_children":[1,3,5,7,9,11,13,15,17,-1,19,-1,21,-1,23,25,27,29,31,33,35,37,39,41,43,-1,-1,-1,-1,-1,-1,-1,-1,-1,-1,-1,-1,-1,-1,-1,-1,-1,-1,-1,-1],"loss_changes":[3.525352E5,8.336253E4,4.0650203E4,5.2209062E3,5.3104066E4,2.5023926E4,4.2247344E3,1.5542031E3,2.422402E4,0E0,1.3102535E4,0E0,1.3375862E4,0E0,5.262578E3,5.6296875E1,2.5211719E3,8.1933594E-1,2.6845508E3,5.5287676E3,1.1081867E4,4.4337925E3,5.306539E3,3.5352188E3,1.1081073E3,0E0,0E0,0E0,0E0,0E0,0E0,0E0,0E0,0E0,0E0,0E0,0E0,0E0,0E0,0E0,0E0,0E0,0E0,0E0,0E0],"parents":[2147483647,0,0,1,1,2,2,3,3,4,4,5,5,6,6,7,7,8,8,10,10,12,12,14,14,15,15,16,16,17,17,18,18,19,19,20,20,21,21,22,22,23,23,24,24],"right_children":[2,4,6,8,10,12,14,16,18,-1,20,-1,22,-1,24,26,28,30,32,34,36,38,40,42,44,-1,-1,-1,-1,-1,-1,-1,-1,-1,-1,-1,-1,-1,-1,-1,-1,-1,-1,-1,-1],"split_conditions":[3.881643E-3,3.8409655E-3,3.8409655E-3,3.5149814E-3,9.962338E-1,9.9589545E-1,9.962338E-1,-7.654348E-1,9.961224E-1,9.523408E-2,3.5149814E-3,9.523157E-2,3.5149814E-3,9.523832E-2,9.961085E-1,3.5827844E-3,4.1286033E-3,8.201377E-1,8.201377E-1,-3.3864594E-1,9.961224E-1,-8.081009E-1,9.961224E-1,9.9589545E-1,9.9589545E-1,-9.275535E-2,-8.316696E-2,-8.420001E-2,-6.351491E-2,1.03810504E-1,9.885141E-2,-7.536393E-2,-3.8584463E-2,-1.7943656E-2,-5.7426196E-2,1.00593604E-1,-5.3517236E-3,2.2313627E-3,-4.459351E-2,9.922013E-2,2.2902831E-2,9.523584E-2,6.7731254E-2,9.484015E-2,-2.0043895E-2],"split_indices":[38,50,50,28,50,38,50,3,28,0,28,0,28,0,32,48,40,0,0,1,28,1,28,38,38,0,0,0,0,0,0,0,0,0,0,0,0,0,0,0,0,0,0,0,0],"split_type":[0,0,0,0,0,0,0,0,0,0,0,0,0,0,0,0,0,0,0,0,0,0,0,0,0,0,0,0,0,0,0,0,0,0,0,0,0,0,0,0,0,0,0,0,0],"sum_hessian":[3.1607834E5,1.768559E5,1.3922242E5,1.1276744E5,6.4088477E4,4.418314E4,9.503927E4,8.0453125E4,3.231431E4,1.1635891E4,5.2452586E4,8.804974E3,3.5378168E4,2.5567283E4,6.947199E4,1.9588416E4,6.0864707E4,2.2558542E3,3.0058455E4,3.5884645E4,1.6567941E4,2.072115E4,1.4657017E4,6.739609E4,2.075902E3,1.780408E4,1.7843362E3,3.579442E4,2.507029E4,1.4863608E3,7.6949347E2,2.3785092E4,6.2733633E3,1.6010213E4,1.9874432E4,3.0169343E3,1.3551007E4,8.750915E3,1.1970235E4,2.8197834E3,1.1837233E4,1.5050098E4,5.2345992E4,2.359098E2,1.8399922E3],"tree_param":{"num_deleted":"0","num_feature":"60","num_nodes":"45","size_leaf_vector":"1"}},{"base_weights":[-1.0948854E-3,-8.957386E-1,1.1339784E0,-1.3894117E0,-2.8283795E-2,3.793161E-1,1.4872031E0,-1.5203089E0,-1.0642425E0,9.112456E-2,-4.3607304E-1,9.112231E-2,2.1379368E-2,9.112851E-2,1.3637946E0,-1.5625036E0,-1.0697533E0,9.709697E-2,-1.2918555E0,-7.6096255E-1,2.6878563E-1,-4.6774778E-1,7.167699E-1,1.4102678E0,-1.3395883E-1,-8.668175E-2,-7.387068E-2,1.0539402E-1,-7.838573E-2,-7.2021805E-2,-3.6600243E-2,-1.7144052E-2,-5.4805454E-2,9.575208E-2,-4.97849E-3,6.931582E-4,-4.371206E-2,9.45693E-2,2.2039143E-2,9.1126196E-2,6.459671E-2,-3.1571645E-2,4.412524E-2],"categories":[],"categories_nodes":[],"categories_segments":[],"categories_sizes":[],"default_left":[0,0,0,0,0,0,0,0,0,0,0,0,0,0,0,0,0,0,0,0,0,0,0,0,0,0,0,0,0,0,0,0,0,0,0,0,0,0,0,0,0,0,0],"id":2,"left_children":[1,3,5,7,9,11,13,15,17,-1,19,-1,21,-1,23,25,27,-1,29,31,33,35,37,39,41,-1,-1,-1,-1,-1,-1,-1,-1,-1,-1,-1,-1,-1,-1,-1,-1,-1,-1],"loss_changes":[3.197324E5,7.5402766E4,3.6993438E4,4.7746406E3,4.8199777E4,2.2856365E4,3.9099531E3,1.5193125E3,2.204234E4,0E0,1.1984545E4,0E0,1.2059985E4,0E0,4.8105E3,1.0626562E3,1.0848805E4,0E0,2.4897656E3,5.018961E3,1.0013207E4,4.0750718E3,4.7455273E3,3.2675312E3,1.0526958E3,0E0,0E0,0E0,0E0,0E0,0E0,0E0,0E0,0E0,0E0,0E0,0E0,0E0,0E0,0E0,0E0,0E0,0E0],"parents":[2147483647,0,0,1,1,2,2,3,3,4,4,5,5,6,6,7,7,8,8,10,10,12,12,14,14,15,15,16,16,18,18,19,19,20,20,21,21,22,22,23,23,24,24],"right_children":[2,4,6,8,10,12,14,16,18,-1,20,-1,22,-1,24,26,28,-1,30,32,34,36,38,40,42,-1,-1,-1,-1,-1,-1,-1,-1,-1,-1,-1,-1,-1,-1,-1,-1,-1,-1],"split_conditions":[3.881643E-3,3.8409655E-3,3.8409655E-3,3.5149814E-3,9.962338E-1,9.9589545E-1,9.962338E-1,3.5827844E-3,9.961224E-1,9.112456E-2,3.5149814E-3,9.112231E-2,3.5149814E-3,9.112851E-2,9.961085E-1,-6.31081E-1,9.958115E-1,9.709697E-2,8.201377E-1,-3.3864594E-1,9.961224E-1,-6.737786E-1,9.961224E-1,9.9589545E-1,3.5149814E-3,-8.668175E-2,-7.387068E-2,1.0539402E-1,-7.838573E-2,-7.2021805E-2,-3.6600243E-2,-1.7144052E-2,-5.4805454E-2,9.575208E-2,-4.97849E-3,6.931582E-4,-4.371206E-2,9.45693E-2,2.2039143E-2,9.1126196E-2,6.459671E-2,-3.1571645E-2,4.412524E-2],"split_indices":[38,50,50,28,50,38,50,48,28,0,28,0,28,0,32,3,48,0,0,1,28,1,28,38,28,0,0,0,0,0,0,0,0,0,0,0,0,0,0,0,0,0,0],"split_type":[0,0,0,0,0,0,0,0,0,0,0,0,0,0,0,0,0,0,0,0,0,0,0,0,0,0,0,0,0,0,0,0,0,0,0,0,0,0,0,0,0,0,0],"sum_hessian":[3.148545E5,1.7607538E5,1.3877914E5,1.12213484E5,6.3861887E4,4.4247258E4,9.4531875E4,8.000409E4,3.2209395E4,1.1529792E4,5.2332094E4,8.792709E3,3.545455E4,2.5424951E4,6.910693E4,7.315099E4,6.8530967E3,2.2665513E3,2.9942844E4,3.5821062E4,1.6511031E4,2.0814367E4,1.4640184E4,6.702722E4,2.0797058E3,2.4286691E4,4.8864305E4,9.2800397E2,5.925093E3,2.3661629E4,6.281215E3,1.5939373E4,1.988169E4,3.018141E3,1.3492891E4,9.527367E3,1.1287E4,2.7842795E3,1.1855904E4,1.4945388E4,5.2081832E4,1.3965769E3,6.8312897E2],"tree_param":{"num_deleted":"0","num_feature":"60","num_nodes":"43","size_leaf_vector":"1"}},{"base_weights":[7.156476E-4,-8.49936E-1,8.399853E-1,-1.4261187E0,-5.450667E-1,8.754726E-2,5.648029E-1,-1.5368193E0,-1.0841168E0,-8.674367E-1,2.0645092E-1,-6.565633E-1,8.0481535E-1,-1.652271E0,-1.3716449E0,9.5285006E-2,-1.3745407E0,-6.7880714E-1,-1.6052886E0,1.9183747E0,-3.3918285E-1,-1.0164237E0,4.889599E-2,9.425818E-1,-1.2963735E0,-8.328286E-2,-5.8677882E-2,-8.391911E-2,-6.3083805E-2,-7.2456084E-2,-4.0404353E-2,-3.8661562E-2,9.830236E-2,-8.252055E-2,-6.062576E-2,9.512684E-2,9.86013E-2,-4.138071E-3,-6.0103267E-2,-6.772303E-2,-2.8827349E-2,9.53644E-2,-2.6049761E-2,5.6918968E-2,-2.3242565E-2,-2.9872367E-2,-6.954626E-2],"categories":[],"categories_nodes":[],"categories_segments":[],"categories_sizes":[],"default_left":[0,0,0,0,0,0,0,0,0,0,0,0,0,0,0,0,0,0,0,0,0,0,0,0,0,0,0,0,0,0,0,0,0,0,0,0,0,0,0,0,0,0,0,0,0,0,0],"id":3,"left_children":[1,3,5,7,9,-1,11,13,15,17,19,21,23,25,27,-1,29,31,33,35,37,39,41,43,45,-1,-1,-1,-1,-1,-1,-1,-1,-1,-1,-1,-1,-1,-1,-1,-1,-1,-1,-1,-1,-1,-1],"loss_changes":[2.2352977E5,2.7313578E4,3.9507203E4,2.0353906E3,2.4636535E4,0E0,3.548308E4,7.728281E2,1.1430085E4,9.903648E3,2.8515797E4,5.0469443E3,2.928511E4,1.5132812E2,5.621406E2,0E0,5.056172E2,1.4156018E4,2.5476953E2,2.5175781E0,5.1221113E3,1.9567393E3,7.114164E3,2.6162906E4,4.105547E2,0E0,0E0,0E0,0E0,0E0,0E0,0E0,0E0,0E0,0E0,0E0,0E0,0E0,0E0,0E0,0E0,0E0,0E0,0E0,0E0,0E0,0E0],"parents":[2147483647,0,0,1,1,2,2,3,3,4,4,6,6,7,7,8,8,9,9,10,10,11,11,12,12,13,13,14,14,16,16,17,17,18,18,19,19,20,20,21,21,22,22,23,23,24,24],"right_children":[2,4,6,8,10,-1,12,14,16,18,20,22,24,26,28,-1,30,32,34,36,38,40,42,44,46,-1,-1,-1,-1,-1,-1,-1,-1,-1,-1,-1,-1,-1,-1,-1,-1,-1,-1,-1,-1,-1,-1],"split_conditions":[3.8409655E-3,-5.2634966E-1,9.962338E-1,8.201377E-1,8.201377E-1,8.754726E-2,-5.972523E-1,-7.654348E-1,1.1611785E0,9.961923E-1,1.1611785E0,8.201377E-1,9.961923E-1,5.4263663E0,3.895996E-3,9.5285006E-2,3.5827844E-3,3.7504816E-3,3.5827844E-3,9.9645424E-1,9.961062E-1,-8.0636805E-1,1.1611785E0,9.9605286E-1,-3.9893126E-1,-8.328286E-2,-5.8677882E-2,-8.391911E-2,-6.3083805E-2,-7.2456084E-2,-4.0404353E-2,-3.8661562E-2,9.830236E-2,-8.252055E-2,-6.062576E-2,9.512684E-2,9.86013E-2,-4.138071E-3,-6.0103267E-2,-6.772303E-2,-2.8827349E-2,9.53644E-2,-2.6049761E-2,5.6918968E-2,-2.3242565E-2,-2.9872367E-2,-6.954626E-2],"split_indices":[50,3,50,0,0,0,3,3,0,42,0,0,42,16,31,0,48,42,48,27,26,3,0,39,10,0,0,0,0,0,0,0,0,0,0,0,0,0,0,0,0,0,0,0,0,0,0],"split_type":[0,0,0,0,0,0,0,0,0,0,0,0,0,0,0,0,0,0,0,0,0,0,0,0,0,0,0,0,0,0,0,0,0,0,0,0,0,0,0,0,0,0,0,0,0,0,0],"sum_hessian":[3.1309728E5,1.5549423E5,1.5760303E5,5.38042E4,1.0169004E5,3.6562324E4,1.2104071E5,4.0644676E4,1.3159523E4,7.1163625E4,3.052641E4,1.9879078E4,1.01161625E5,2.3917855E4,1.6726822E4,1.1646167E3,1.1994906E4,5.6676402E4,1.4487228E4,7.3773833E3,2.3149025E4,1.3163719E4,6.71536E3,9.493751E4,6.224117E3,2.3264826E4,6.530288E2,4.4104473E3,1.2316374E4,1.0597984E4,1.3969221E3,5.4723426E4,1.9529758E3,1.2991538E4,1.4956892E3,5.7240894E3,1.6532941E3,1.7846658E4,5.3023677E3,7.4423433E3,5.721376E3,1.57547E3,5.13989E3,8.334326E4,1.1594252E4,7.4254425E2,5.4815728E3],"tree_param":{"num_deleted":"0","num_feature":"60","num_nodes":"47","size_leaf_vector":"1"}},{"base_weights":[7.353662E-4,-8.289538E-1,1.0533036E0,-1.2852491E0,-3.541142E-2,3.7583435E-1,1.3737332E0,-1.5174543E0,-1.1496944E0,8.4394924E-2,-4.083132E-1,8.746204E-2,4.0435787E-2,1.4071171E0,2.8344917E-1,-1.5679694E0,-1.3355489E0,-1.3719523E0,-7.9123735E-1,-1.2552208E0,-2.0829426E-1,-1.0835055E0,2.470678E-1,1.7055967E0,1.3113562E0,8.4282435E-2,-1.9662386E-1,-7.3895834E-2,-8.108629E-2,9.322013E-2,-7.562369E-2,-7.145796E-2,-4.2385098E-2,1.0537946E-1,-5.5242408E-2,-6.555281E-2,5.870571E-3,-3.29847E-2,1.2618325E-2,-6.2813394E-2,-6.4616175E-3,9.767031E-2,4.0488164E-3,8.4390245E-2,8.570985E-2,8.439692E-2,5.9430975E-2,8.850913E-2,-2.2154456E-2],"categories":[],"categories_nodes":[],"categories_segments":[],"categories_sizes":[],"default_left":[0,0,0,0,0,0,0,0,0,0,0,0,0,0,0,0,0,0,0,0,0,0,0,0,0,0,0,0,0,0,0,0,0,0,0,0,0,0,0,0,0,0,0,0,0,0,0,0,0],"id":4,"left_children":[1,3,5,7,9,11,13,15,17,-1,19,-1,21,23,25,27,29,31,33,35,37,39,41,43,45,-1,47,-1,-1,-1,-1,-1,-1,-1,-1,-1,-1,-1,-1,-1,-1,-1,-1,-1,-1,-1,-1,-1,-1],"loss_changes":[2.7185534E5,6.3031734E4,2.978675E4,3.4771875E3,4.0842094E4,2.0296768E4,3.3902969E3,3.7222656E2,5.559086E3,0E0,8.850588E3,0E0,8.225126E3,2.5812812E3,1.8642335E3,1.5191406E2,5.019167E3,1.2907188E3,2.4287365E4,7.652002E2,8.789428E3,9.065781E2,8.478291E3,4.6484375E-1,3.1611797E3,0E0,1.0011046E3,0E0,0E0,0E0,0E0,0E0,0E0,0E0,0E0,0E0,0E0,0E0,0E0,0E0,0E0,0E0,0E0,0E0,0E0,0E0,0E0,0E0,0E0],"parents":[2147483647,0,0,1,1,2,2,3,3,4,4,5,5,6,6,7,7,8,8,10,10,12,12,13,13,14,14,15,15,16,16,17,17,18,18,19,19,20,20,21,21,22,22,23,23,24,24,26,26],"right_children":[2,4,6,8,10,12,14,16,18,-1,20,-1,22,24,26,28,30,32,34,36,38,40,42,44,46,-1,48,-1,-1,-1,-1,-1,-1,-1,-1,-1,-1,-1,-1,-1,-1,-1,-1,-1,-1,-1,-1,-1,-1],"split_conditions":[3.881643E-3,3.8409655E-3,3.8409655E-3,-5.972523E-1,9.962338E-1,9.9589545E-1,9.961085E-1,8.201377E-1,4.1286033E-3,8.4394924E-2,-7.654348E-1,8.746204E-2,3.895996E-3,9.9589545E-1,9.962338E-1,-5.0667965E-1,1.1611785E0,-1.7708613E-1,9.961265E-1,4.217624E-3,4.1286033E-3,4.217624E-3,9.96272E-1,9.962338E-1,9.962338E-1,8.4282435E-2,9.9589545E-1,-7.3895834E-2,-8.108629E-2,9.322013E-2,-7.562369E-2,-7.145796E-2,-4.2385098E-2,1.0537946E-1,-5.5242408E-2,-6.555281E-2,5.870571E-3,-3.29847E-2,1.2618325E-2,-6.2813394E-2,-6.4616175E-3,9.767031E-2,4.0488164E-3,8.4390245E-2,8.570985E-2,8.439692E-2,5.9430975E-2,8.850913E-2,-2.2154456E-2],"split_indices":[38,50,50,3,50,38,32,0,40,0,3,0,31,38,50,1,0,4,40,22,40,22,31,50,50,0,38,0,0,0,0,0,0,0,0,0,0,0,0,0,0,0,0,0,0,0,0,0,0],"split_type":[0,0,0,0,0,0,0,0,0,0,0,0,0,0,0,0,0,0,0,0,0,0,0,0,0,0,0,0,0,0,0,0,0,0,0,0,0,0,0,0,0,0,0,0,0,0,0,0,0],"sum_hessian":[3.1129303E5,1.7407681E5,1.372162E5,1.1052382E5,6.3552992E4,4.40614E4,9.3154805E4,4.0734844E4,6.978898E4,1.1305019E4,5.2247977E4,8.647397E3,3.5414E4,9.0386914E4,2.7678914E3,3.1875412E4,8.859431E3,4.30768E4,2.6712174E4,9.98115E3,4.2266824E4,5.498975E3,2.9915025E4,2.1950875E4,6.843604E4,7.053093E2,2.062582E3,1.1925776E4,1.9949637E4,4.636733E2,8.395757E3,3.883712E4,4.239681E3,2.6071895E3,2.4104984E4,9.591054E3,3.9009653E2,2.1347781E4,2.0919043E4,4.6557734E3,8.4320184E2,2.6526191E3,2.7262406E4,7.2172876E3,1.4733588E4,1.6819008E4,5.161703E4,2.2899632E2,1.8335857E3],"tree_param":{"num_deleted":"0","num_feature":"60","num_nodes":"49","size_leaf_vector":"1"}},{"base_weights":[-9.945159E-5,-7.953551E-1,1.0101095E0,-1.2340263E0,-3.6299948E-2,3.604823E-1,1.3198425E0,-1.3255658E0,-8.987722E-1,8.161076E-2,-3.9095965E-1,1.686436E0,4.0834177E-2,8.1614465E-2,1.207882E0,-1.5120558E0,-1.2177578E0,1.8763317E0,-1.2399462E0,-1.9494723E-1,-1.2196921E0,1.6951665E0,8.1985116E-2,-1.0357665E0,2.379188E-1,1.2519019E0,-1.8293354E-1,-7.798472E-2,-7.034275E-2,-6.832707E-2,-4.7068104E-2,8.9415066E-2,9.4719805E-2,-5.2187216E-2,-7.139287E-2,-1.9000357E-2,1.0106947E-1,-8.699859E-2,-5.5382784E-2,8.588351E-2,8.344459E-2,-6.333728E-2,-1.1654138E-2,9.32141E-2,3.989455E-3,8.277514E-2,5.6883138E-2,8.521002E-2,-2.0935811E-2],"categories":[],"categories_nodes":[],"categories_segments":[],"categories_sizes":[],"default_left":[0,0,0,0,0,0,0,0,0,0,0,0,0,0,0,0,0,0,0,0,0,0,0,0,0,0,0,0,0,0,0,0,0,0,0,0,0,0,0,0,0,0,0,0,0,0,0,0,0],"id":5,"left_children":[1,3,5,7,9,11,13,15,17,-1,19,21,23,-1,25,27,29,31,33,35,37,39,-1,41,43,45,47,-1,-1,-1,-1,-1,-1,-1,-1,-1,-1,-1,-1,-1,-1,-1,-1,-1,-1,-1,-1,-1,-1],"loss_changes":[2.4759673E5,5.7419734E4,2.7314234E4,3.3527031E3,3.737552E4,1.857646E4,3.2136406E3,1.7240625E3,2.2197979E4,0E0,8.461102E3,6.933594E-1,7.4937964E3,0E0,4.1436797E3,1.5538281E2,2.235914E3,6.9433594E-1,7.682129E2,1.7279037E4,5.78834E2,1.3554688E0,0E0,1.01292285E3,7.6772754E3,3.0227969E3,9.249585E2,0E0,0E0,0E0,0E0,0E0,0E0,0E0,0E0,0E0,0E0,0E0,0E0,0E0,0E0,0E0,0E0,0E0,0E0,0E0,0E0,0E0,0E0],"parents":[2147483647,0,0,1,1,2,2,3,3,4,4,5,5,6,6,7,7,8,8,10,10,11,11,12,12,14,14,15,15,16,16,17,17,18,18,19,19,20,20,21,21,23,23,24,24,25,25,26,26],"right_children":[2,4,6,8,10,12,14,16,18,-1,20,22,24,-1,26,28,30,32,34,36,38,40,-1,42,44,46,48,-1,-1,-1,-1,-1,-1,-1,-1,-1,-1,-1,-1,-1,-1,-1,-1,-1,-1,-1,-1,-1,-1],"split_conditions":[3.881643E-3,3.8409655E-3,3.8409655E-3,8.201377E-1,9.962338E-1,9.9589545E-1,9.962338E-1,-5.972523E-1,1.1611785E0,8.161076E-2,9.959101E-1,3.7504816E-3,3.895996E-3,8.1614465E-2,9.961085E-1,-7.654348E-1,4.1286033E-3,-5.972523E-1,-2.3418076E-1,4.1644233E-3,3.895996E-3,8.201377E-1,8.1985116E-2,3.5216517E-3,9.96272E-1,9.9589545E-1,9.9589545E-1,-7.798472E-2,-7.034275E-2,-6.832707E-2,-4.7068104E-2,8.9415066E-2,9.4719805E-2,-5.2187216E-2,-7.139287E-2,-1.9000357E-2,1.0106947E-1,-8.699859E-2,-5.5382784E-2,8.588351E-2,8.344459E-2,-6.333728E-2,-1.1654138E-2,9.32141E-2,3.989455E-3,8.277514E-2,5.6883138E-2,8.521002E-2,-2.0935811E-2],"split_indices":[38,50,50,0,50,38,50,3,0,0,18,42,31,0,32,3,40,3,1,18,31,0,0,33,31,38,38,0,0,0,0,0,0,0,0,0,0,0,0,0,0,0,0,0,0,0,0,0,0],"split_type":[0,0,0,0,0,0,0,0,0,0,0,0,0,0,0,0,0,0,0,0,0,0,0,0,0,0,0,0,0,0,0,0,0,0,0,0,0,0,0,0,0,0,0,0,0,0,0,0,0],"sum_hessian":[3.0819394E5,1.7244342E5,1.3575052E5,1.09285055E5,6.315837E4,4.3828246E4,9.1922266E4,8.584307E4,2.3441977E4,1.1070941E4,5.208743E4,8.512538E3,3.5315707E4,2.4245902E4,6.767637E4,3.1441504E4,5.440157E4,2.5659646E3,2.0876012E4,4.2125184E4,9.962245E3,7.1428945E3,1.3696436E3,5.4639434E3,2.9851764E4,6.5600195E4,2.0761716E3,2.1631967E4,9.809537E3,3.5362188E4,1.903938E4,4.5392325E2,2.1120413E3,1.0215918E4,1.0660095E4,3.8879637E4,3.2455474E3,1.7625774E3,8.199667E3,3.812887E3,3.3300078E3,4.2425386E3,1.2214045E3,2.6443057E3,2.7207459E4,1.4468887E4,5.1131305E4,2.2989923E2,1.8462723E3],"tree_param":{"num_deleted":"0","num_feature":"60","num_nodes":"49","size_leaf_vector":"1"}},{"base_weights":[-3.7867805E-5,-7.637677E-1,9.7165805E-1,-5.4573613E-1,-1.3261156E0,1.1142316E0,9.718766E-2,-5.9712492E-2,-1.3067476E0,-1.4201281E0,-1.1020172E0,1.2720841E0,-1.774205E-2,8.141831E-2,-2.2653593E-1,-2.626783E-1,1.8281579E0,-1.4071646E0,-1.041616E0,-1.4626327E0,-1.1123675E0,1.948932E0,-1.2593763E0,1.3085258E0,1.4933564E-1,8.1828184E-2,-3.184686E-1,-7.2891855E-1,4.9451578E-1,-2.1191975E-2,8.417895E-2,8.403044E-2,1.1181923E-1,-7.306694E-2,-6.0837686E-2,9.501999E-2,-6.127605E-2,-7.4081495E-2,-4.9909078E-2,1.1531641E-1,-7.126719E-2,1.0068377E-1,8.86211E-2,-6.804576E-2,-4.084454E-2,8.001446E-2,6.0724195E-2,8.122701E-2,-7.5947433E-3,-3.6199775E-2,1.744706E-2,-4.566867E-2,1.3117766E-3,8.965891E-2,1.1057255E-2],"categories":[],"categories_nodes":[],"categories_segments":[],"categories_sizes":[],"default_left":[0,0,0,0,0,0,0,0,0,0,0,0,0,0,0,0,0,0,0,0,0,0,0,0,0,0,0,0,0,0,0,0,0,0,0,0,0,0,0,0,0,0,0,0,0,0,0,0,0,0,0,0,0,0,0],"id":6,"left_children":[1,3,5,7,9,11,13,15,17,19,21,23,25,-1,27,29,31,33,35,37,39,41,43,45,47,-1,49,51,53,-1,-1,-1,-1,-1,-1,-1,-1,-1,-1,-1,-1,-1,-1,-1,-1,-1,-1,-1,-1,-1,-1,-1,-1,-1,-1],"loss_changes":[2.2652888E5,2.0954977E4,1.6748195E4,4.5554457E4,1.0044531E3,2.0638625E4,9.335314E3,2.8800752E4,1.2765234E3,4.383672E2,6.77974E3,4.1472188E3,7.033358E3,0E0,5.632092E3,2.1287986E4,4.3573242E2,3.5732812E2,7.1388887E3,2.592539E2,4.3750356E3,4.3481445E0,6.020586E2,2.6919219E3,1.4168407E3,0E0,3.2380337E3,1.2763784E3,2.266249E3,0E0,0E0,0E0,0E0,0E0,0E0,0E0,0E0,0E0,0E0,0E0,0E0,0E0,0E0,0E0,0E0,0E0,0E0,0E0,0E0,0E0,0E0,0E0,0E0,0E0,0E0],"parents":[2147483647,0,0,1,1,2,2,3,3,4,4,5,5,6,6,7,7,8,8,9,9,10,10,11,11,12,12,14,14,15,15,16,16,17,17,18,18,19,19,20,20,21,21,22,22,23,23,24,24,26,26,27,27,28,28],"right_children":[2,4,6,8,10,12,14,16,18,20,22,24,26,-1,28,30,32,34,36,38,40,42,44,46,48,-1,50,52,54,-1,-1,-1,-1,-1,-1,-1,-1,-1,-1,-1,-1,-1,-1,-1,-1,-1,-1,-1,-1,-1,-1,-1,-1,-1,-1],"split_conditions":[3.881643E-3,9.9630004E-1,9.9632674E-1,9.9632674E-1,3.5149814E-3,9.9630004E-1,9.9589545E-1,3.994556E-3,3.5149814E-3,3.964962E-3,9.961224E-1,9.958115E-1,9.9589545E-1,8.141831E-2,3.5149814E-3,3.7241504E-3,3.7241504E-3,8.201377E-1,9.961224E-1,4.217624E-3,9.960437E-1,8.201377E-1,8.201377E-1,9.9589545E-1,9.9589545E-1,8.1828184E-2,3.5149814E-3,3.5950032E-3,9.961224E-1,-2.1191975E-2,8.417895E-2,8.403044E-2,1.1181923E-1,-7.306694E-2,-6.0837686E-2,9.501999E-2,-6.127605E-2,-7.4081495E-2,-4.9909078E-2,1.1531641E-1,-7.126719E-2,1.0068377E-1,8.86211E-2,-6.804576E-2,-4.084454E-2,8.001446E-2,6.0724195E-2,8.122701E-2,-7.5947433E-3,-3.6199775E-2,1.744706E-2,-4.566867E-2,1.3117766E-3,8.965891E-2,1.1057255E-2],"split_indices":[38,47,49,49,28,47,38,47,28,57,28,48,38,0,28,49,49,0,28,22,57,0,0,38,38,0,28,58,28,0,0,0,0,0,0,0,0,0,0,0,0,0,0,0,0,0,0,0,0,0,0,0,0,0,0],"split_type":[0,0,0,0,0,0,0,0,0,0,0,0,0,0,0,0,0,0,0,0,0,0,0,0,0,0,0,0,0,0,0,0,0,0,0,0,0,0,0,0,0,0,0,0,0,0,0,0,0,0,0,0,0,0,0],"sum_hessian":[3.052464E5,1.7091303E5,1.3433336E5,1.2316277E5,4.7750266E4,1.1550171E5,1.8831656E4,7.5161555E4,4.800122E4,3.36347E4,1.4115569E4,1.0136617E5,1.4135536E4,3.285859E3,1.5545797E4,6.78661E4,7.2954546E3,3.481205E4,1.3189168E4,2.954984E4,4.0848582E3,6.9177295E2,1.3423796E4,9.817935E4,3.1868228E3,2.1736702E3,1.1961866E4,9.162172E3,6.383625E3,6.267688E4,5.1892207E3,5.3623936E3,1.9330613E3,2.7096176E4,7.715876E3,7.753996E2,1.2413769E4,2.8386574E4,1.1632659E3,3.4206393E2,3.7427942E3,4.985121E2,1.9326082E2,1.0916639E4,2.5071577E3,2.392779E4,7.425156E4,5.396453E2,2.6471772E3,7.440709E3,4.5211567E3,7.363376E3,1.7987964E3,1.1091218E3,5.2745034E3],"tree_param":{"num_deleted":"0","num_feature":"60","num_nodes":"55","size_leaf_vector":"1"}},{"base_weights":[1.0736204E-3,-7.183654E-1,7.111432E-1,-1.1757638E0,-4.0488076E-1,7.730968E-2,4.7002593E-1,-1.3990027E0,-9.679835E-1,-7.5231427E-1,2.5438052E-1,-5.103793E-1,7.0686376E-1,-1.476557E0,-1.2381524E0,-1.1444793E0,-4.9296066E-1,-9.773779E-1,-1.6804369E-1,1.7414161E0,-3.1677946E-2,-8.538164E-1,1.3648544E-1,8.2137454E-1,-7.365986E-1,-7.4810706E-2,-6.429634E-2,9.006763E-2,-6.7906335E-2,-6.334584E-2,-4.2076096E-2,8.711343E-2,-4.463431E-2,-6.1455708E-2,-3.6309123E-2,9.103883E-2,-3.2421045E-2,8.6416624E-2,9.530825E-2,-2.1069642E-2,3.5697307E-2,-6.190094E-2,-2.4557069E-2,8.939683E-2,-2.0718135E-2,4.7788423E-2,-1.1182002E-2,-5.3077888E-2,1.8566645E-3],"categories":[],"categories_nodes":[],"categories_segments":[],"categories_sizes":[],"default_left":[0,0,0,0,0,0,0,0,0,0,0,0,0,0,0,0,0,0,0,0,0,0,0,0,0,0,0,0,0,0,0,0,0,0,0,0,0,0,0,0,0,0,0,0,0,0,0,0,0],"id":7,"left_children":[1,3,5,7,9,-1,11,13,15,17,19,21,23,25,27,29,31,33,35,37,39,41,43,45,47,-1,-1,-1,-1,-1,-1,-1,-1,-1,-1,-1,-1,-1,-1,-1,-1,-1,-1,-1,-1,-1,-1,-1,-1],"loss_changes":[1.5421662E5,2.1500672E4,3.0589633E4,2.8270938E3,2.037969E4,0E0,2.737437E4,3.6484375E2,2.6475723E3,7.6618867E3,1.3062508E4,5.0960884E3,1.5695684E4,7.236719E1,3.491539E3,8.531387E2,7.6482344E3,2.6590195E3,1.5482693E4,7.3847656E0,7.484091E3,2.0872168E3,7.2382754E3,1.2355762E4,1.7549309E3,0E0,0E0,0E0,0E0,0E0,0E0,0E0,0E0,0E0,0E0,0E0,0E0,0E0,0E0,0E0,0E0,0E0,0E0,0E0,0E0,0E0,0E0,0E0,0E0],"parents":[2147483647,0,0,1,1,2,2,3,3,4,4,6,6,7,7,8,8,9,9,10,10,11,11,12,12,13,13,14,14,15,15,16,16,17,17,18,18,19,19,20,20,21,21,22,22,23,23,24,24],"right_children":[2,4,6,8,10,-1,12,14,16,18,20,22,24,26,28,30,32,34,36,38,40,42,44,46,48,-1,-1,-1,-1,-1,-1,-1,-1,-1,-1,-1,-1,-1,-1,-1,-1,-1,-1,-1,-1,-1,-1,-1,-1],"split_conditions":[3.8409655E-3,-4.3791398E-1,9.962338E-1,-7.654348E-1,3.5149814E-3,7.730968E-2,-5.3913504E-1,3.5149814E-3,8.201377E-1,8.201377E-1,9.961224E-1,8.201377E-1,9.959101E-1,3.5827844E-3,9.961224E-1,3.5149814E-3,1.1611785E0,3.9304006E-3,1.1611785E0,9.9605286E-1,8.201377E-1,-8.0636805E-1,1.1611785E0,9.9605286E-1,3.5149814E-3,-7.4810706E-2,-6.429634E-2,9.006763E-2,-6.7906335E-2,-6.334584E-2,-4.2076096E-2,8.711343E-2,-4.463431E-2,-6.1455708E-2,-3.6309123E-2,9.103883E-2,-3.2421045E-2,8.6416624E-2,9.530825E-2,-2.1069642E-2,3.5697307E-2,-6.190094E-2,-2.4557069E-2,8.939683E-2,-2.0718135E-2,4.7788423E-2,-1.1182002E-2,-5.3077888E-2,1.8566645E-3],"split_indices":[50,3,50,3,28,0,3,28,0,0,28,0,18,48,28,28,0,27,0,39,0,3,0,39,28,0,0,0,0,0,0,0,0,0,0,0,0,0,0,0,0,0,0,0,0,0,0,0,0],"split_type":[0,0,0,0,0,0,0,0,0,0,0,0,0,0,0,0,0,0,0,0,0,0,0,0,0,0,0,0,0,0,0,0,0,0,0,0,0,0,0,0,0,0,0,0,0,0,0,0,0],"sum_hessian":[3.0187938E5,1.4995039E5,1.51929E5,6.097718E4,8.89732E4,3.4038746E4,1.17890266E5,2.9392352E4,3.1584828E4,5.826641E4,3.0706791E4,2.2937572E4,9.495269E4,1.982534E4,9.567012E3,2.3027502E4,8.557327E3,4.2062918E4,1.6203495E4,4.953196E3,2.5753594E4,1.49826045E4,7.9549683E3,8.7974086E4,6.9786074E3,1.7965924E4,1.8594175E3,3.62754E2,9.204258E3,1.6397441E4,6.6300615E3,1.2976464E3,7.25968E3,2.1006896E4,2.105602E4,3.151813E3,1.3051682E4,4.5994204E3,3.537755E2,1.6913736E4,8.839858E3,7.2742075E3,7.7083965E3,1.9891677E3,5.965801E3,7.7949484E4,1.0024597E4,4.914287E3,2.0643203E3],"tree_param":{"num_deleted":"0","num_feature":"60","num_nodes":"49","size_leaf_vector":"1"}},{"base_weights":[-1.4923177E-4,-7.17237E-1,9.134E-1,-1.1157614E0,-4.2508684E-2,3.4494978E-1,1.1918674E0,-9.129062E-1,-1.2584541E0,7.537117E-2,-3.542026E-1,1.583164E0,5.38604E-2,7.52337E-2,1.0823568E0,-1.3280201E0,-7.805714E-1,-1.3715132E0,-1.1252315E0,-1.1324484E0,-1.741893E-1,8.034578E-2,1.5522051E0,4.9808255E-1,-3.933937E-1,1.1259568E0,-2.659486E-1,-6.852139E-2,-5.2093614E-2,-6.214849E-2,-2.9646171E-2,-7.016852E-2,-5.619433E-2,1.039026E-1,-6.421137E-2,-5.923445E-2,6.035129E-3,-5.0549E-2,2.2657812E-3,7.473461E-2,7.979215E-2,-2.94882E-2,3.40407E-2,1.6575744E-2,-3.1378403E-2,7.681489E-2,5.0641328E-2,7.848593E-2,-2.4298921E-2],"categories":[],"categories_nodes":[],"categories_segments":[],"categories_sizes":[],"default_left":[0,0,0,0,0,0,0,0,0,0,0,0,0,0,0,0,0,0,0,0,0,0,0,0,0,0,0,0,0,0,0,0,0,0,0,0,0,0,0,0,0,0,0,0,0,0,0,0,0],"id":8,"left_children":[1,3,5,7,9,11,13,15,17,-1,19,21,23,-1,25,27,29,31,33,35,37,-1,39,41,43,45,47,-1,-1,-1,-1,-1,-1,-1,-1,-1,-1,-1,-1,-1,-1,-1,-1,-1,-1,-1,-1,-1,-1],"loss_changes":[1.9572995E5,4.5010203E4,2.079821E4,3.0449453E3,3.0028701E4,1.5571668E4,3.019375E3,2.3863633E3,9.289219E2,0E0,7.249774E3,3.5507812E0,6.9501963E3,0E0,3.8404688E3,1.2603711E2,2.85883E3,2.619961E2,1.4448867E4,6.365576E2,7.7201294E3,0E0,6.649414E0,3.489126E3,2.959292E3,2.9359766E3,8.2756464E2,0E0,0E0,0E0,0E0,0E0,0E0,0E0,0E0,0E0,0E0,0E0,0E0,0E0,0E0,0E0,0E0,0E0,0E0,0E0,0E0,0E0,0E0],"parents":[2147483647,0,0,1,1,2,2,3,3,4,4,5,5,6,6,7,7,8,8,10,10,11,11,12,12,14,14,15,15,16,16,17,17,18,18,19,19,20,20,22,22,23,23,24,24,25,25,26,26],"right_children":[2,4,6,8,10,12,14,16,18,-1,20,22,24,-1,26,28,30,32,34,36,38,-1,40,42,44,46,48,-1,-1,-1,-1,-1,-1,-1,-1,-1,-1,-1,-1,-1,-1,-1,-1,-1,-1,-1,-1,-1,-1],"split_conditions":[3.881643E-3,3.8409655E-3,3.8409655E-3,-4.2316523E-1,9.962338E-1,9.9589545E-1,9.962338E-1,-7.654348E-1,4.1286033E-3,7.537117E-2,-7.654348E-1,8.201377E-1,-6.015818E-1,7.52337E-2,9.961085E-1,3.949488E-3,3.895996E-3,3.7124327E-3,9.961265E-1,4.217624E-3,3.895996E-3,8.034578E-2,1.1611785E0,3.895996E-3,-3.9893126E-1,9.9589545E-1,9.9589545E-1,-6.852139E-2,-5.2093614E-2,-6.214849E-2,-2.9646171E-2,-7.016852E-2,-5.619433E-2,1.039026E-1,-6.421137E-2,-5.923445E-2,6.035129E-3,-5.0549E-2,2.2657812E-3,7.473461E-2,7.979215E-2,-2.94882E-2,3.40407E-2,1.6575744E-2,-3.1378403E-2,7.681489E-2,5.0641328E-2,7.848593E-2,-2.4298921E-2],"split_indices":[38,50,50,1,50,38,50,3,40,0,3,0,1,0,32,59,31,21,40,22,31,0,0,31,10,38,38,0,0,0,0,0,0,0,0,0,0,0,0,0,0,0,0,0,0,0,0,0,0],"split_type":[0,0,0,0,0,0,0,0,0,0,0,0,0,0,0,0,0,0,0,0,0,0,0,0,0,0,0,0,0,0,0,0,0,0,0,0,0,0,0,0,0,0,0,0,0,0,0,0,0],"sum_hessian":[2.98779E5,1.6738828E5,1.3139072E5,1.052326E5,6.2155676E4,4.320215E4,8.818858E4,4.345847E4,6.1774133E4,1.04061455E4,5.174953E4,8.222301E3,3.4979848E4,2.2864775E4,6.53238E4,1.050304E4,3.295543E4,3.3410805E4,2.8363326E4,9.72039E3,4.202914E4,4.623927E3,3.5983745E3,1.754935E4,1.7430496E4,6.3277766E4,2.046038E3,9.144082E3,1.3589578E3,9.511574E3,2.3443855E4,2.9598318E4,3.812486E3,1.3406776E3,2.702265E4,9.33144E3,3.8894925E2,8.733173E3,3.329597E4,1.5675984E3,2.030776E3,2.523584E3,1.5025766E4,4.2558135E3,1.3174683E4,1.3672589E4,4.9605176E4,2.1833946E2,1.8276986E3],"tree_param":{"num_deleted":"0","num_feature":"60","num_nodes":"49","size_leaf_vector":"1"}},{"base_weights":[-3.5380528E-4,-6.8786526E-1,8.785392E-1,-1.0773382E0,-3.4226295E-2,3.2604066E-1,1.1526177E0,-1.2008893E0,-7.7561796E-1,1.4705592E0,-3.296395E-1,1.5387598E0,4.8224173E-2,7.340448E-2,1.0437884E0,-1.3156878E0,-1.0719892E0,1.8316945E0,-9.809477E-1,7.306815E-2,7.5509675E-2,-6.313802E-1,3.1957644E-1,7.799741E-2,1.5112805E0,-3.65236E-1,6.338646E-1,1.4972874E0,9.222288E-1,-5.870054E-2,-6.907457E-2,1.07612245E-1,-6.1721165E-2,9.470356E-2,8.529486E-2,-5.5598553E-2,-2.5345568E-2,-1.2518302E-2,-4.726118E-2,9.219962E-2,-1.032156E-3,7.294805E-2,7.751227E-2,-3.4737047E-2,3.8076506E-3,8.458736E-2,1.9498155E-2,7.771641E-2,7.4548244E-2,4.9816784E-2,-1.2206881E-2],"categories":[],"categories_nodes":[],"categories_segments":[],"categories_sizes":[],"default_left":[0,0,0,0,0,0,0,0,0,0,0,0,0,0,0,0,0,0,0,0,0,0,0,0,0,0,0,0,0,0,0,0,0,0,0,0,0,0,0,0,0,0,0,0,0,0,0,0,0,0,0],"id":9,"left_children":[1,3,5,7,9,11,13,15,17,19,21,23,25,-1,27,29,31,33,35,-1,-1,37,39,-1,41,43,45,47,49,-1,-1,-1,-1,-1,-1,-1,-1,-1,-1,-1,-1,-1,-1,-1,-1,-1,-1,-1,-1,-1,-1],"loss_changes":[1.7831962E5,4.2153164E4,1.9613578E4,3.8669453E3,2.7484068E4,1.4470414E4,2.9708984E3,1.0878672E3,1.6141229E4,1.4921875E0,1.0124221E4,2.3046875E0,8.461984E3,0E0,3.5474062E3,3.6132812E2,1.816634E4,1.4041016E1,1.735207E3,0E0,0E0,4.218832E3,8.505218E3,0E0,4.9086914E0,2.979353E3,3.7308364E3,2.5878906E0,4.3885273E3,0E0,0E0,0E0,0E0,0E0,0E0,0E0,0E0,0E0,0E0,0E0,0E0,0E0,0E0,0E0,0E0,0E0,0E0,0E0,0E0,0E0,0E0],"parents":[2147483647,0,0,1,1,2,2,3,3,4,4,5,5,6,6,7,7,8,8,9,9,10,10,11,11,12,12,14,14,15,15,16,16,17,17,18,18,21,21,22,22,24,24,25,25,26,26,27,27,28,28],"right_children":[2,4,6,8,10,12,14,16,18,20,22,24,26,-1,28,30,32,34,36,-1,-1,38,40,-1,42,44,46,48,50,-1,-1,-1,-1,-1,-1,-1,-1,-1,-1,-1,-1,-1,-1,-1,-1,-1,-1,-1,-1,-1,-1],"split_conditions":[3.881643E-3,3.8409655E-3,3.8409655E-3,3.5149814E-3,9.962338E-1,9.9589545E-1,9.962338E-1,4.1286033E-3,9.961224E-1,3.5827844E-3,3.5149814E-3,8.201377E-1,3.5149814E-3,7.340448E-2,9.9589545E-1,-7.856417E-1,9.961265E-1,8.201377E-1,8.201377E-1,7.306815E-2,7.5509675E-2,-3.2131484E-1,9.961224E-1,7.799741E-2,1.1611785E0,8.201377E-1,9.961224E-1,-5.972523E-1,9.961062E-1,-5.870054E-2,-6.907457E-2,1.07612245E-1,-6.1721165E-2,9.470356E-2,8.529486E-2,-5.5598553E-2,-2.5345568E-2,-1.2518302E-2,-4.726118E-2,9.219962E-2,-1.032156E-3,7.294805E-2,7.751227E-2,-3.4737047E-2,3.8076506E-3,8.458736E-2,1.9498155E-2,7.771641E-2,7.4548244E-2,4.9816784E-2,-1.2206881E-2],"split_indices":[38,50,50,28,50,38,50,40,28,48,28,0,28,0,38,1,40,0,0,0,0,1,28,0,0,0,28,3,26,0,0,0,0,0,0,0,0,0,0,0,0,0,0,0,0,0,0,0,0,0,0],"split_type":[0,0,0,0,0,0,0,0,0,0,0,0,0,0,0,0,0,0,0,0,0,0,0,0,0,0,0,0,0,0,0,0,0,0,0,0,0,0,0,0,0,0,0,0,0,0,0,0,0,0,0],"sum_hessian":[2.951075E5,1.6558181E5,1.2952567E5,1.0375713E5,6.182468E4,4.2949176E4,8.657649E4,7.361118E4,3.0145957E4,1.0144798E4,5.1679883E4,8.0043223E3,3.494485E4,2.2202846E4,6.4373652E4,3.8930504E4,3.4680676E4,2.2001497E3,2.7945809E4,8.264967E3,1.8798306E3,3.5281758E4,1.6398127E4,4.488009E3,3.5163132E3,2.0483762E4,1.4461092E4,1.3605335E4,5.0768316E4,1.2353012E4,2.6577492E4,1.6627953E3,3.301788E4,1.4614387E3,7.387109E2,2.1893195E4,6.0526133E3,1.5936373E4,1.9345383E4,2.9911792E3,1.3406946E4,1.5173541E3,1.9989592E3,1.1728014E4,8.755747E3,2.708309E3,1.1752783E4,1.333129E3,1.2272206E4,4.7735516E4,3.0328018E3],"tree_param":{"num_deleted":"0","num_feature":"60","num_nodes":"51","size_leaf_vector":"1"}},{"base_weights":[3.6629845E-4,-6.633671E-1,8.478979E-1,-1.0418328E0,-3.601294E-2,3.1522602E-1,1.1153792E0,-1.1620382E0,-7.4910045E-1,1.4372338E0,-3.182227E-1,1.499011E0,4.962954E-2,7.174789E-2,1.0067037E0,-1.3723788E0,-1.0841861E0,1.7622497E0,-9.490186E-1,7.144372E-2,7.365149E-2,-6.05933E-1,2.9937845E-1,1.5181774E0,1.4741396E0,-3.3869305E-1,5.998585E-1,1.0506036E0,-3.010437E-1,-7.056733E-2,-5.4036934E-2,1.2011131E-1,-5.889212E-2,9.076374E-2,8.262669E-2,-5.3929318E-2,-2.4278676E-2,-5.361563E-2,-1.5729673E-2,8.852033E-2,-1.2844516E-3,7.6492734E-2,7.332905E-2,7.13373E-2,7.54775E-2,-4.030947E-2,-4.467066E-4,8.186882E-2,1.83152E-2,7.304775E-2,4.7020264E-2,-3.79302E-2,3.193468E-2],"categories":[],"categories_nodes":[],"categories_segments":[],"categories_sizes":[],"default_left":[0,0,0,0,0,0,0,0,0,0,0,0,0,0,0,0,0,0,0,0,0,0,0,0,0,0,0,0,0,0,0,0,0,0,0,0,0,0,0,0,0,0,0,0,0,0,0,0,0,0,0,0,0],"id":10,"left_children":[1,3,5,7,9,11,13,15,17,19,21,23,25,-1,27,29,31,33,35,-1,-1,37,39,41,43,45,47,49,51,-1,-1,-1,-1,-1,-1,-1,-1,-1,-1,-1,-1,-1,-1,-1,-1,-1,-1,-1,-1,-1,-1,-1,-1],"loss_changes":[1.6365984E5,3.873885E4,1.8205008E4,3.5800547E3,2.552565E4,1.3429904E4,2.9527422E3,1.1798359E3,1.48761E4,8.4765625E-1,9.155584E3,1.4921875E0,7.454718E3,0E0,3.6446445E3,2.1990234E2,1.719657E4,9.711914E0,1.6473418E3,0E0,0E0,4.7756895E3,7.8304375E3,3.984375E-1,3.6210938E0,3.1532317E3,3.4973408E3,2.7759297E3,8.873311E2,0E0,0E0,0E0,0E0,0E0,0E0,0E0,0E0,0E0,0E0,0E0,0E0,0E0,0E0,0E0,0E0,0E0,0E0,0E0,0E0,0E0,0E0,0E0,0E0],"parents":[2147483647,0,0,1,1,2,2,3,3,4,4,5,5,6,6,7,7,8,8,9,9,10,10,11,11,12,12,14,14,15,15,16,16,17,17,18,18,21,21,22,22,23,23,24,24,25,25,26,26,27,27,28,28],"right_children":[2,4,6,8,10,12,14,16,18,20,22,24,26,-1,28,30,32,34,36,-1,-1,38,40,42,44,46,48,50,52,-1,-1,-1,-1,-1,-1,-1,-1,-1,-1,-1,-1,-1,-1,-1,-1,-1,-1,-1,-1,-1,-1,-1,-1],"split_conditions":[3.881643E-3,3.8409655E-3,3.8409655E-3,3.5149814E-3,9.962338E-1,9.9589545E-1,9.962338E-1,3.895996E-3,9.961224E-1,3.5827844E-3,3.5149814E-3,8.201377E-1,3.5149814E-3,7.174789E-2,9.961085E-1,3.5216517E-3,9.96272E-1,8.201377E-1,8.201377E-1,7.144372E-2,7.365149E-2,3.9304006E-3,9.961224E-1,3.7504816E-3,1.1611785E0,3.9304006E-3,9.961224E-1,9.9589545E-1,3.5149814E-3,-7.056733E-2,-5.4036934E-2,1.2011131E-1,-5.889212E-2,9.076374E-2,8.262669E-2,-5.3929318E-2,-2.4278676E-2,-5.361563E-2,-1.5729673E-2,8.852033E-2,-1.2844516E-3,7.6492734E-2,7.332905E-2,7.13373E-2,7.54775E-2,-4.030947E-2,-4.467066E-4,8.186882E-2,1.83152E-2,7.304775E-2,4.7020264E-2,-3.79302E-2,3.193468E-2],"split_indices":[38,50,50,28,50,38,50,31,28,48,28,0,28,0,32,33,31,0,0,0,0,27,28,42,0,27,28,38,28,0,0,0,0,0,0,0,0,0,0,0,0,0,0,0,0,0,0,0,0,0,0,0,0],"split_type":[0,0,0,0,0,0,0,0,0,0,0,0,0,0,0,0,0,0,0,0,0,0,0,0,0,0,0,0,0,0,0,0,0,0,0,0,0,0,0,0,0,0,0,0,0,0,0,0,0,0,0,0,0],"sum_hessian":[2.9093075E5,1.6315681E5,1.2777393E5,1.0176443E5,6.1392375E4,4.271398E4,8.5059945E4,7.21389E4,2.9625537E4,9.86887E3,5.1523508E4,7.8264067E3,3.4887574E4,2.1582078E4,6.347787E4,1.948303E4,5.2655867E4,2.1838926E3,2.7441645E4,8.033687E3,1.8351835E3,3.5149215E4,1.6374289E4,4.386242E3,3.4401646E3,2.0453182E4,1.4434392E4,6.141637E4,2.061499E3,1.718323E4,2.2997993E3,1.3768568E3,5.127901E4,1.4618447E3,7.220478E2,2.1444863E4,5.99678E3,1.3513682E4,2.1635535E4,2.9627063E3,1.3411583E4,3.553392E3,8.3285034E2,1.4888135E3,1.9513511E3,8.459201E3,1.199398E4,2.6511584E3,1.1783233E4,1.2999021E4,4.8417348E4,1.3865684E3,6.7493066E2],"tree_param":{"num_deleted":"0","num_feature":"60","num_nodes":"53","size_leaf_vector":"1"}},{"base_weights":[-3.1557959E-6,-6.390775E-1,8.185656E-1,-1.0081019E0,-3.3444192E-2,3.0033648E-1,1.0813754E0,-1.2381654E0,-8.784601E-1,1.4068682E0,-3.035283E-1,7.315062E-2,4.564988E-2,7.024236E-2,9.724882E-1,-1.1124445E0,-1.3154272E0,-1.0925475E0,-5.4278064E-1,6.9963425E-2,7.1969144E-2,-1.2840265E-1,-1.0601699E0,4.3116608E-1,-4.070303E-1,1.4296489E0,8.535663E-1,-6.24802E-2,-4.6136912E-2,-6.683616E-2,-5.5002835E-2,-5.747188E-2,-2.8981278E-2,9.973999E-2,-4.169138E-2,-1.5051096E-2,9.705236E-2,-7.710316E-2,-4.793221E-2,-3.0010348E-2,3.0255586E-2,-6.197786E-2,-1.2022676E-2,7.3860735E-2,7.1215056E-2,4.6369784E-2,-1.4478442E-2],"categories":[],"categories_nodes":[],"categories_segments":[],"categories_sizes":[],"default_left":[0,0,0,0,0,0,0,0,0,0,0,0,0,0,0,0,0,0,0,0,0,0,0,0,0,0,0,0,0,0,0,0,0,0,0,0,0,0,0,0,0,0,0,0,0,0,0],"id":11,"left_children":[1,3,5,7,9,11,13,15,17,19,21,-1,23,-1,25,27,29,31,33,-1,-1,35,37,39,41,43,45,-1,-1,-1,-1,-1,-1,-1,-1,-1,-1,-1,-1,-1,-1,-1,-1,-1,-1,-1,-1],"loss_changes":[1.4996278E5,3.597868E4,1.7117164E4,2.982461E3,2.3711268E4,1.2523408E4,2.9358672E3,3.4869922E2,4.597508E3,3.6523438E-1,6.8012603E3,0E0,6.0547666E3,0E0,3.3908906E3,3.560586E2,1.0091406E2,1.1392812E3,1.8404842E4,0E0,0E0,1.4890655E4,4.7049902E2,3.3618936E3,2.2126658E3,1.1757812E0,4.1792656E3,0E0,0E0,0E0,0E0,0E0,0E0,0E0,0E0,0E0,0E0,0E0,0E0,0E0,0E0,0E0,0E0,0E0,0E0,0E0,0E0],"parents":[2147483647,0,0,1,1,2,2,3,3,4,4,5,5,6,6,7,7,8,8,9,9,10,10,12,12,14,14,15,15,16,16,17,17,18,18,21,21,22,22,23,23,24,24,25,25,26,26],"right_children":[2,4,6,8,10,12,14,16,18,20,22,-1,24,-1,26,28,30,32,34,-1,-1,36,38,40,42,44,46,-1,-1,-1,-1,-1,-1,-1,-1,-1,-1,-1,-1,-1,-1,-1,-1,-1,-1,-1,-1],"split_conditions":[3.881643E-3,3.8409655E-3,3.8409655E-3,-5.972523E-1,9.962338E-1,9.9589545E-1,9.962338E-1,-5.227043E-1,4.1286033E-3,3.5827844E-3,9.959101E-1,7.315062E-2,-4.2316523E-1,7.024236E-2,9.9589545E-1,-8.0636805E-1,3.5827844E-3,-1.7708613E-1,9.961265E-1,6.9963425E-2,7.1969144E-2,4.1644233E-3,3.895996E-3,3.895996E-3,3.895996E-3,-5.972523E-1,9.961062E-1,-6.24802E-2,-4.6136912E-2,-6.683616E-2,-5.5002835E-2,-5.747188E-2,-2.8981278E-2,9.973999E-2,-4.169138E-2,-1.5051096E-2,9.705236E-2,-7.710316E-2,-4.793221E-2,-3.0010348E-2,3.0255586E-2,-6.197786E-2,-1.2022676E-2,7.3860735E-2,7.1215056E-2,4.6369784E-2,-1.4478442E-2],"split_indices":[38,50,50,3,50,38,50,1,40,48,18,0,1,0,38,3,48,4,40,0,0,18,31,31,31,3,26,0,0,0,0,0,0,0,0,0,0,0,0,0,0,0,0,0,0,0,0],"split_type":[0,0,0,0,0,0,0,0,0,0,0,0,0,0,0,0,0,0,0,0,0,0,0,0,0,0,0,0,0,0,0,0,0,0,0,0,0,0,0,0,0,0,0,0,0,0,0],"sum_hessian":[2.866645E5,1.6098233E5,1.25682164E5,1.0003087E5,6.0951457E4,4.229118E4,8.3390984E4,3.6049156E4,6.3981707E4,9.624016E3,5.132744E4,7.598471E3,3.4692707E4,2.099854E4,6.2392445E4,1.3727347E4,2.232181E4,3.90649E4,2.4916809E4,7.8364307E3,1.7875851E3,4.16814E4,9.646042E3,1.873633E4,1.595638E4,1.2877527E4,4.9514918E4,7.963832E3,5.763515E3,2.0308484E4,2.0133268E3,3.5163543E4,3.9013584E3,2.5631719E3,2.2353637E4,3.8473094E4,3.208306E3,1.6761215E3,7.9699204E3,2.7035808E3,1.6032748E4,2.6592732E3,1.3297106E4,1.2736488E3,1.1603878E4,4.651118E4,3.003736E3],"tree_param":{"num_deleted":"0","num_feature":"60","num_nodes":"47","size_leaf_vector":"1"}},{"base_weights":[2.7456915E-4,-6.162076E-1,7.899764E-1,-9.753101E-1,-3.2108348E-2,2.87306E-1,1.0486773E0,-1.0953122E0,-6.865752E-1,6.896383E-2,-2.8854123E-1,1.4305521E0,4.371518E-2,6.8869285E-2,9.3956965E-1,-1.1357785E0,-6.7865574E-1,1.7213141E0,-8.819889E-1,-5.608838E-1,2.9530466E-1,7.232625E-2,1.4094949E0,-3.2642007E-1,5.698267E-1,6.9999285E-2,8.221057E-1,-6.6262774E-2,-5.325821E-2,1.0857736E-1,-5.8965653E-2,8.850207E-2,8.106386E-2,-5.064646E-2,-2.1256095E-2,-5.05705E-2,-1.4067441E-2,8.547012E-2,-5.69863E-4,6.845861E-2,7.1958646E-2,-3.2202903E-2,4.7218674E-3,7.902026E-2,1.7329993E-2,2.5402978E-2,5.3216726E-2],"categories":[],"categories_nodes":[],"categories_segments":[],"categories_sizes":[],"default_left":[0,0,0,0,0,0,0,0,0,0,0,0,0,0,0,0,0,0,0,0,0,0,0,0,0,0,0,0,0,0,0,0,0,0,0,0,0,0,0,0,0,0,0,0,0,0,0],"id":12,"left_children":[1,3,5,7,9,11,13,15,17,-1,19,21,23,-1,25,27,29,31,33,35,37,-1,39,41,43,-1,45,-1,-1,-1,-1,-1,-1,-1,-1,-1,-1,-1,-1,-1,-1,-1,-1,-1,-1,-1,-1],"loss_changes":[1.3761152E5,3.329635E4,1.6114703E4,3.4054062E3,2.1874613E4,1.1726363E4,2.9329766E3,1.1700391E3,1.3583113E4,0E0,8.1327935E3,4.4921875E-1,6.7599346E3,0E0,3.3210898E3,8.454375E2,8.77805E3,7.6938477E0,1.5967168E3,4.392162E3,7.0563154E3,0E0,1.894043E0,2.7241636E3,3.2335469E3,0E0,3.7227695E3,0E0,0E0,0E0,0E0,0E0,0E0,0E0,0E0,0E0,0E0,0E0,0E0,0E0,0E0,0E0,0E0,0E0,0E0,0E0,0E0],"parents":[2147483647,0,0,1,1,2,2,3,3,4,4,5,5,6,6,7,7,8,8,10,10,11,11,12,12,14,14,15,15,16,16,17,17,18,18,19,19,20,20,22,22,23,23,24,24,26,26],"right_children":[2,4,6,8,10,12,14,16,18,-1,20,22,24,-1,26,28,30,32,34,36,38,-1,40,42,44,-1,46,-1,-1,-1,-1,-1,-1,-1,-1,-1,-1,-1,-1,-1,-1,-1,-1,-1,-1,-1,-1],"split_conditions":[3.881643E-3,3.8409655E-3,3.8409655E-3,3.5149814E-3,9.962338E-1,9.9589545E-1,9.962338E-1,3.5827844E-3,9.961224E-1,6.896383E-2,3.5149814E-3,8.201377E-1,3.5149814E-3,6.8869285E-2,9.9589545E-1,3.895996E-3,9.958115E-1,8.201377E-1,8.201377E-1,3.9304006E-3,9.961224E-1,7.232625E-2,1.1611785E0,8.201377E-1,9.961224E-1,6.9999285E-2,8.201377E-1,-6.6262774E-2,-5.325821E-2,1.0857736E-1,-5.8965653E-2,8.850207E-2,8.106386E-2,-5.064646E-2,-2.1256095E-2,-5.05705E-2,-1.4067441E-2,8.547012E-2,-5.69863E-4,6.845861E-2,7.1958646E-2,-3.2202903E-2,4.7218674E-3,7.902026E-2,1.7329993E-2,2.5402978E-2,5.3216726E-2],"split_indices":[38,50,50,28,50,38,50,48,28,0,28,0,28,0,38,31,48,0,0,27,28,0,0,0,28,0,0,0,0,0,0,0,0,0,0,0,0,0,0,0,0,0,0,0,0,0,0],"split_type":[0,0,0,0,0,0,0,0,0,0,0,0,0,0,0,0,0,0,0,0,0,0,0,0,0,0,0,0,0,0,0,0,0,0,0,0,0,0,0,0,0,0,0,0,0,0,0],"sum_hessian":[2.8266238E5,1.5874108E5,1.2392129E5,9.830363E4,6.043745E4,4.210704E4,8.181425E4,6.9440445E4,2.886318E4,9.291798E3,5.114565E4,7.3950303E3,3.4712008E4,2.0385936E4,6.1428316E4,6.3291734E4,6.148715E3,2.1659927E3,2.6697188E4,3.4876902E4,1.6268749E4,4.1667075E3,3.2283228E3,2.037674E4,1.4335269E4,1.2484133E4,4.8944184E4,1.7178777E4,4.6112957E4,9.181906E2,5.2305244E3,1.4453015E3,7.206911E2,2.074916E4,5.9480283E3,1.3353104E4,2.1523799E4,2.8988E3,1.3369948E4,1.3886884E3,1.8396344E3,1.1612096E4,8.764645E3,2.5925159E3,1.1742753E4,2.1313996E4,2.7630188E4],"tree_param":{"num_deleted":"0","num_feature":"60","num_nodes":"47","size_leaf_vector":"1"}},{"base_weights":[1.486031E-3,-5.929845E-1,7.643485E-1,-9.440921E-1,-3.0388338E-2,2.7806634E-1,1.0174543E0,-1.0630813E0,-6.593443E-1,6.7696676E-2,-2.7468038E-1,7.004009E-2,4.2886596E-2,6.76125E-2,9.082318E-1,-1.0872635E0,-3.5611573E-1,1.6619475E0,-8.4589434E-1,-5.3538126E-1,2.8299287E-1,-3.1215107E-1,5.4717726E-1,9.526806E-1,-3.6876887E-1,-4.5980576E-2,-5.8806907E-2,1.240445E-1,-6.1425686E-2,8.523205E-2,7.858254E-2,-5.686749E-2,-3.0940244E-2,-3.7140414E-2,8.9109514E-4,8.2636796E-2,-7.0006744E-4,5.1901313E-3,-3.133859E-2,7.683845E-2,1.6655907E-2,7.96993E-3,5.0681766E-2,-4.0103227E-2,2.7850581E-2],"categories":[],"categories_nodes":[],"categories_segments":[],"categories_sizes":[],"default_left":[0,0,0,0,0,0,0,0,0,0,0,0,0,0,0,0,0,0,0,0,0,0,0,0,0,0,0,0,0,0,0,0,0,0,0,0,0,0,0,0,0,0,0,0,0],"id":13,"left_children":[1,3,5,7,9,11,13,15,17,-1,19,-1,21,-1,23,25,27,29,31,33,35,37,39,41,43,-1,-1,-1,-1,-1,-1,-1,-1,-1,-1,-1,-1,-1,-1,-1,-1,-1,-1,-1,-1],"loss_changes":[1.2618101E5,3.08897E4,1.4998344E4,3.2616953E3,2.0322344E4,1.1014894E4,2.9294453E3,1.1605703E3,1.2291141E4,0E0,7.42637E3,0E0,6.1757607E3,0E0,3.4306133E3,9.7727344E2,5.5656045E3,5.461426E0,1.7380078E3,3.9941943E3,6.619758E3,2.6491196E3,3.0183223E3,2.8237656E3,8.1614966E2,0E0,0E0,0E0,0E0,0E0,0E0,0E0,0E0,0E0,0E0,0E0,0E0,0E0,0E0,0E0,0E0,0E0,0E0,0E0,0E0],"parents":[2147483647,0,0,1,1,2,2,3,3,4,4,5,5,6,6,7,7,8,8,10,10,12,12,14,14,15,15,16,16,17,17,18,18,19,19,20,20,21,21,22,22,23,23,24,24],"right_children":[2,4,6,8,10,12,14,16,18,-1,20,-1,22,-1,24,26,28,30,32,34,36,38,40,42,44,-1,-1,-1,-1,-1,-1,-1,-1,-1,-1,-1,-1,-1,-1,-1,-1,-1,-1,-1,-1],"split_conditions":[3.881643E-3,3.8409655E-3,3.8409655E-3,3.5149814E-3,9.962338E-1,9.9589545E-1,9.962338E-1,4.217624E-3,9.961224E-1,6.7696676E-2,3.5149814E-3,7.004009E-2,3.5149814E-3,6.76125E-2,9.961085E-1,-7.261509E-1,9.963587E-1,8.201377E-1,-5.3913504E-1,8.201377E-1,9.961224E-1,-7.9715425E-1,9.961224E-1,-1.3771507E0,3.5149814E-3,-4.5980576E-2,-5.8806907E-2,1.240445E-1,-6.1425686E-2,8.523205E-2,7.858254E-2,-5.686749E-2,-3.0940244E-2,-3.7140414E-2,8.9109514E-4,8.2636796E-2,-7.0006744E-4,5.1901313E-3,-3.133859E-2,7.683845E-2,1.6655907E-2,7.96993E-3,5.0681766E-2,-4.0103227E-2,2.7850581E-2],"split_indices":[38,50,50,28,50,38,50,22,28,0,28,0,28,0,32,1,22,0,3,0,28,1,28,13,28,0,0,0,0,0,0,0,0,0,0,0,0,0,0,0,0,0,0,0,0],"split_type":[0,0,0,0,0,0,0,0,0,0,0,0,0,0,0,0,0,0,0,0,0,0,0,0,0,0,0,0,0,0,0,0,0,0,0,0,0,0,0,0,0,0,0,0,0],"sum_hessian":[2.782366E5,1.5637755E5,1.2185903E5,9.628617E4,6.0091387E4,4.1715254E4,8.014377E4,6.7906836E4,2.8379332E4,9.013024E3,5.107836E4,7.223881E3,3.4491375E4,1.9711488E4,6.043229E4,6.5660336E4,2.2464995E3,2.110456E3,2.6268877E4,3.480689E4,1.6271472E4,2.0241238E4,1.4250135E4,5.839981E4,2.0324788E3,2.2752217E4,4.290812E4,5.279105E2,1.7185891E3,1.4208037E3,6.896522E2,1.1502327E4,1.4766549E4,2.5314656E4,9.492233E3,2.898584E3,1.3372889E4,8.717147E3,1.1524092E4,2.5331672E3,1.1716968E4,4.1674194E3,5.423239E4,1.3845824E3,6.4789636E2],"tree_param":{"num_deleted":"0","num_feature":"60","num_nodes":"45","size_leaf_vector":"1"}},{"base_weights":[-4.6292625E-5,-5.743964E-1,7.383899E-1,-9.168844E-1,-2.9526526E-2,2.6765558E-1,9.8689085E-1,-1.03257E0,-6.414876E-1,6.654068E-2,-2.6432627E-1,6.869293E-2,4.2587634E-2,6.646126E-2,8.767082E-1,-1.2751138E0,-9.598468E-1,1.6118193E0,-8.2053244E-1,-5.150886E-1,2.7081773E-1,-2.923374E-1,5.199286E-1,1.3560073E0,7.57441E-1,-6.459046E-2,-5.569903E-2,-5.631134E-2,-3.6657136E-2,8.241349E-2,7.670092E-2,-5.526782E-2,-3.0027343E-2,-4.7236666E-2,-1.2507289E-2,8.005168E-2,-4.9402285E-4,-3.6932997E-2,1.0083489E-3,7.490017E-2,1.5667608E-2,6.971481E-2,6.758052E-2,4.156249E-2,-1.7847104E-2],"categories":[],"categories_nodes":[],"categories_segments":[],"categories_sizes":[],"default_left":[0,0,0,0,0,0,0,0,0,0,0,0,0,0,0,0,0,0,0,0,0,0,0,0,0,0,0,0,0,0,0,0,0,0,0,0,0,0,0,0,0,0,0,0,0],"id":14,"left_children":[1,3,5,7,9,11,13,15,17,-1,19,-1,21,-1,23,25,27,29,31,33,35,37,39,41,43,-1,-1,-1,-1,-1,-1,-1,-1,-1,-1,-1,-1,-1,-1,-1,-1,-1,-1,-1,-1],"loss_changes":[1.1622595E5,2.8765379E4,1.4024641E4,3.014875E3,1.9003768E4,1.0313676E4,2.9586406E3,1.1744062E3,1.1298253E4,0E0,6.8090146E3,0E0,5.503477E3,0E0,3.3926016E3,3.9914062E1,1.9334219E3,3.3173828E0,1.6247129E3,3.932622E3,6.0452505E3,2.8216309E3,2.8674182E3,1.07421875E-1,3.9104453E3,0E0,0E0,0E0,0E0,0E0,0E0,0E0,0E0,0E0,0E0,0E0,0E0,0E0,0E0,0E0,0E0,0E0,0E0,0E0,0E0],"parents":[2147483647,0,0,1,1,2,2,3,3,4,4,5,5,6,6,7,7,8,8,10,10,12,12,14,14,15,15,16,16,17,17,18,18,19,19,20,20,21,21,22,22,23,23,24,24],"right_children":[2,4,6,8,10,12,14,16,18,-1,20,-1,22,-1,24,26,28,30,32,34,36,38,40,42,44,-1,-1,-1,-1,-1,-1,-1,-1,-1,-1,-1,-1,-1,-1,-1,-1,-1,-1,-1,-1],"split_conditions":[3.881643E-3,3.8409655E-3,3.8409655E-3,3.5149814E-3,9.962338E-1,9.9589545E-1,9.962338E-1,-7.654348E-1,9.961224E-1,6.654068E-2,3.5149814E-3,6.869293E-2,3.5149814E-3,6.646126E-2,9.9589545E-1,3.5827844E-3,4.1286033E-3,8.201377E-1,-5.3913504E-1,3.9304006E-3,9.961224E-1,3.9304006E-3,9.961224E-1,-5.972523E-1,9.961062E-1,-6.459046E-2,-5.569903E-2,-5.631134E-2,-3.6657136E-2,8.241349E-2,7.670092E-2,-5.526782E-2,-3.0027343E-2,-4.7236666E-2,-1.2507289E-2,8.005168E-2,-4.9402285E-4,-3.6932997E-2,1.0083489E-3,7.490017E-2,1.5667608E-2,6.971481E-2,6.758052E-2,4.156249E-2,-1.7847104E-2],"split_indices":[38,50,50,28,50,38,50,3,28,0,28,0,28,0,38,48,40,0,3,27,28,27,28,3,26,0,0,0,0,0,0,0,0,0,0,0,0,0,0,0,0,0,0,0,0],"split_type":[0,0,0,0,0,0,0,0,0,0,0,0,0,0,0,0,0,0,0,0,0,0,0,0,0,0,0,0,0,0,0,0,0,0,0,0,0,0,0,0,0,0,0,0,0],"sum_hessian":[2.7403766E5,1.5414505E5,1.19892625E5,9.465022E4,5.949483E4,4.1424473E4,7.846816E4,6.6649914E4,2.8000307E4,8.756771E3,5.0738055E4,7.00246E3,3.442201E4,1.9103387E4,5.9364766E4,1.5370441E4,5.1279473E4,2.0605068E3,2.5939799E4,3.4548883E4,1.6189172E4,2.0228867E4,1.4193145E4,1.1826651E4,4.7538113E4,1.3921034E4,1.449408E3,2.9572213E4,2.1707258E4,1.3893833E3,6.7112354E2,1.1302277E4,1.4637522E4,1.3177315E4,2.1371568E4,2.8201074E3,1.3369064E4,8.330205E3,1.1898662E4,2.4738735E3,1.17192705E4,1.1856486E3,1.0641003E4,4.4585355E4,2.952761E3],"tree_param":{"num_deleted":"0","num_feature":"60","num_nodes":"45","size_leaf_vector":"1"}},{"base_weights":[1.3746413E-3,-5.5333513E-1,7.1448725E-1,-3.782148E-1,-1.0325028E0,6.6534765E-2,5.5867636E-1,-5.0369287E-1,1.7582352E0,-8.741629E-1,-1.1507976E0,7.0584935E-1,-2.1069025E-1,-1.7955527E-1,-1.0098311E0,1.4938397E0,2.3701942E0,-7.794701E-1,-1.2379444E0,-1.1704454E0,-6.075867E-1,8.79372E-1,-2.9967043E-1,-5.6777847E-1,3.0350277E-1,-1.4884603E-2,7.516655E-2,-6.223898E-2,-4.5223054E-2,6.6794805E-2,1.0912552E-1,1.2549339E-1,1.06165424E-1,-4.088564E-2,1.11311905E-1,-6.4774476E-2,-4.5126177E-2,-6.033E-2,-4.4346612E-2,1.192707E-1,-5.5810582E-2,3.9028328E-2,7.629248E-2,4.7374754E-3,-4.1463416E-2,-3.0221164E-3,-3.807465E-2,7.216905E-2,4.858234E-3],"categories":[],"categories_nodes":[],"categories_segments":[],"categories_sizes":[],"default_left":[0,0,0,0,0,0,0,0,0,0,0,0,0,0,0,0,0,0,0,0,0,0,0,0,0,0,0,0,0,0,0,0,0,0,0,0,0,0,0,0,0,0,0,0,0,0,0,0,0],"id":15,"left_children":[1,3,5,7,9,-1,11,13,15,17,19,21,23,25,27,29,31,33,35,37,39,41,43,45,47,-1,-1,-1,-1,-1,-1,-1,-1,-1,-1,-1,-1,-1,-1,-1,-1,-1,-1,-1,-1,-1,-1,-1,-1],"loss_changes":[1.0655249E5,1.2713066E4,1.1314719E4,2.9746613E4,7.5853906E2,0E0,1.0651771E4,1.7193928E4,9.924258E2,5.965137E2,2.4698242E2,1.3778211E4,2.7738445E3,1.270257E4,1.0117969E3,4.6492578E2,5.865332E1,1.5840508E3,6.794336E1,2.2849414E2,1.2390607E3,4.300461E3,2.4277925E3,8.7613916E2,1.4561707E3,0E0,0E0,0E0,0E0,0E0,0E0,0E0,0E0,0E0,0E0,0E0,0E0,0E0,0E0,0E0,0E0,0E0,0E0,0E0,0E0,0E0,0E0,0E0,0E0],"parents":[2147483647,0,0,1,1,2,2,3,3,4,4,6,6,7,7,8,8,9,9,10,10,11,11,12,12,13,13,14,14,15,15,16,16,17,17,18,18,19,19,20,20,21,21,22,22,23,23,24,24],"right_children":[2,4,6,8,10,-1,12,14,16,18,20,22,24,26,28,30,32,34,36,38,40,42,44,46,48,-1,-1,-1,-1,-1,-1,-1,-1,-1,-1,-1,-1,-1,-1,-1,-1,-1,-1,-1,-1,-1,-1,-1,-1],"split_conditions":[3.881643E-3,9.9630004E-1,9.9589545E-1,3.994556E-3,-4.2316523E-1,6.6534765E-2,9.9632674E-1,9.9632674E-1,3.7241504E-3,9.961062E-1,4.217624E-3,9.9630004E-1,3.5149814E-3,3.7241504E-3,-5.972523E-1,3.5827844E-3,8.201377E-1,4.1574636E-3,3.7124327E-3,-1.7708613E-1,9.963587E-1,3.7241504E-3,-3.3864594E-1,-7.206509E-1,9.961224E-1,-1.4884603E-2,7.516655E-2,-6.223898E-2,-4.5223054E-2,6.6794805E-2,1.0912552E-1,1.2549339E-1,1.06165424E-1,-4.088564E-2,1.11311905E-1,-6.4774476E-2,-4.5126177E-2,-6.033E-2,-4.4346612E-2,1.192707E-1,-5.5810582E-2,3.9028328E-2,7.629248E-2,4.7374754E-3,-4.1463416E-2,-3.0221164E-3,-3.807465E-2,7.216905E-2,4.858234E-3],"split_indices":[38,47,38,47,1,0,49,49,49,26,22,47,28,49,3,48,0,26,21,4,22,49,1,9,28,0,0,0,0,0,0,0,0,0,0,0,0,0,0,0,0,0,0,0,0,0,0,0,0],"split_type":[0,0,0,0,0,0,0,0,0,0,0,0,0,0,0,0,0,0,0,0,0,0,0,0,0,0,0,0,0,0,0,0,0,0,0,0,0,0,0,0,0,0,0,0,0,0,0,0,0],"sum_hessian":[2.693621E5,1.5150834E5,1.1785374E5,1.1095841E5,4.054993E4,2.3784035E4,9.406971E4,1.0480383E5,6.1545776E3,1.7343596E4,2.3206336E4,7.896457E4,1.5105137E4,6.3889504E4,4.091433E4,4.3001494E3,1.8544286E3,1.376396E4,3.5796355E3,2.2395152E4,8.1118286E2,6.7343266E4,1.1621309E4,8.914346E3,6.190791E3,5.969949E4,4.1900156E3,1.2664613E4,2.8249713E4,3.5003083E3,7.9984076E2,1.178523E3,6.759056E2,1.3591756E4,1.7220471E2,3.0529985E3,5.266369E2,1.9859371E4,2.5357812E3,1.1729154E2,6.938913E2,5.8417188E4,8.926073E3,6.6611865E3,4.960122E3,2.463577E3,6.450769E3,9.4795984E2,5.2428315E3],"tree_param":{"num_deleted":"0","num_feature":"60","num_nodes":"49","size_leaf_vector":"1"}},{"base_weights":[6.807839E-4,-5.349968E-1,6.9088846E-1,-8.6437947E-1,-2.4516495E-2,2.4438134E-1,9.324496E-1,-1.1042587E0,-7.334391E-1,6.473613E-2,-2.3855214E-1,6.632918E-2,3.744129E-2,6.4537644E-2,8.2044226E-1,-1.1955464E0,-9.736031E-1,-9.5115685E-1,-4.0187433E-1,-9.9549764E-1,-6.6711046E-2,-8.6985266E-1,2.0158736E-1,6.55609E-2,7.022451E-1,-6.12162E-2,-5.058324E-2,-5.8870118E-2,-4.190485E-2,-3.8125586E-2,-5.5661745E-2,1.00439325E-1,-3.4552947E-2,-6.824924E-2,-4.1122913E-2,5.5567133E-3,-5.2997626E-2,-5.3754486E-2,-7.3010214E-3,8.560079E-2,2.9804169E-3,1.9027283E-2,4.763953E-2],"categories":[],"categories_nodes":[],"categories_segments":[],"categories_sizes":[],"default_left":[0,0,0,0,0,0,0,0,0,0,0,0,0,0,0,0,0,0,0,0,0,0,0,0,0,0,0,0,0,0,0,0,0,0,0,0,0,0,0,0,0,0,0],"id":16,"left_children":[1,3,5,7,9,11,13,15,17,-1,19,-1,21,-1,23,25,27,29,31,33,35,37,39,-1,41,-1,-1,-1,-1,-1,-1,-1,-1,-1,-1,-1,-1,-1,-1,-1,-1,-1,-1],"loss_changes":[9.800631E4,2.5094582E4,1.2493148E4,2.8484922E3,1.6527926E4,9.107205E3,3.0155312E3,3.8086328E2,4.2359043E3,0E0,6.5508643E3,0E0,5.084505E3,0E0,3.3210586E3,9.8515625E1,3.6298242E2,1.0822266E3,1.6218175E4,5.9462695E2,7.250632E3,7.76853E2,6.1996147E3,0E0,3.7196855E3,0E0,0E0,0E0,0E0,0E0,0E0,0E0,0E0,0E0,0E0,0E0,0E0,0E0,0E0,0E0,0E0,0E0,0E0],"parents":[2147483647,0,0,1,1,2,2,3,3,4,4,5,5,6,6,7,7,8,8,10,10,12,12,14,14,15,15,16,16,17,17,18,18,19,19,20,20,21,21,22,22,24,24],"right_children":[2,4,6,8,10,12,14,16,18,-1,20,-1,22,-1,24,26,28,30,32,34,36,38,40,-1,42,-1,-1,-1,-1,-1,-1,-1,-1,-1,-1,-1,-1,-1,-1,-1,-1,-1,-1],"split_conditions":[3.881643E-3,3.8409655E-3,3.8409655E-3,-5.972523E-1,9.962338E-1,9.9589545E-1,9.962338E-1,-8.0636805E-1,4.1286033E-3,6.473613E-2,-7.654348E-1,6.632918E-2,3.895996E-3,6.4537644E-2,9.9589545E-1,3.949488E-3,4.1286033E-3,-1.3602242E-1,9.961265E-1,4.1286033E-3,9.961923E-1,3.5216517E-3,9.96272E-1,6.55609E-2,8.201377E-1,-6.12162E-2,-5.058324E-2,-5.8870118E-2,-4.190485E-2,-3.8125586E-2,-5.5661745E-2,1.00439325E-1,-3.4552947E-2,-6.824924E-2,-4.1122913E-2,5.5567133E-3,-5.2997626E-2,-5.3754486E-2,-7.3010214E-3,8.560079E-2,2.9804169E-3,1.9027283E-2,4.763953E-2],"split_indices":[38,50,50,3,50,38,50,3,40,0,3,0,31,0,38,59,40,1,40,40,42,33,31,0,0,0,0,0,0,0,0,0,0,0,0,0,0,0,0,0,0,0,0],"split_type":[0,0,0,0,0,0,0,0,0,0,0,0,0,0,0,0,0,0,0,0,0,0,0,0,0,0,0,0,0,0,0,0,0,0,0,0,0,0,0,0,0,0,0],"sum_hessian":[2.6507422E5,1.4924433E5,1.1582991E5,9.071234E4,5.853198E4,4.066528E4,7.5164625E4,3.2028877E4,5.868347E4,8.1699966E3,5.0361984E4,6.526941E3,3.413834E4,1.7898406E4,5.726622E4,1.8850254E4,1.3178622E4,3.542212E4,2.3261348E4,9.316925E3,4.104506E4,5.229382E3,2.8908959E4,1.1112991E4,4.6153227E4,1.6294489E4,2.5557646E3,5.2599873E3,7.918635E3,1.6372088E4,1.9050031E4,2.4909216E3,2.0770426E4,2.9694448E3,6.3474795E3,3.4812566E4,6.232492E3,4.073802E3,1.1555801E3,2.4829807E3,2.6425979E4,2.020833E4,2.5944895E4],"tree_param":{"num_deleted":"0","num_feature":"60","num_nodes":"43","size_leaf_vector":"1"}},{"base_weights":[4.1507295E-4,-5.1712286E-1,6.68051E-1,-8.3908266E-1,-2.4287822E-2,2.3454948E-1,9.06068E-1,-9.5961654E-1,-5.565475E-1,1.2762918E0,-2.2868556E-1,6.527897E-2,3.5234466E-2,6.3628815E-2,7.9367036E-1,-1.1908137E0,-8.7542343E-1,1.582788E0,-7.353226E-1,6.330907E-2,6.585921E-2,-9.3333566E-1,-5.328631E-2,-1.0547593E0,1.6901426E-1,6.4576454E-2,6.7646885E-1,-6.1659325E-2,-4.388319E-2,1.2220545E-1,-4.8763633E-2,8.0834515E-2,7.55465E-2,-4.3809026E-2,-1.292288E-2,-6.909497E-2,5.678038E-3,1.0391792E-1,-1.2195709E-2,-6.979787E-2,-3.0915221E-2,-3.7610758E-2,1.6684487E-2,3.756691E-2,-2.0854773E-2],"categories":[],"categories_nodes":[],"categories_segments":[],"categories_sizes":[],"default_left":[0,0,0,0,0,0,0,0,0,0,0,0,0,0,0,0,0,0,0,0,0,0,0,0,0,0,0,0,0,0,0,0,0,0,0,0,0,0,0,0,0,0,0,0,0],"id":17,"left_children":[1,3,5,7,9,11,13,15,17,19,21,-1,23,-1,25,27,29,31,33,-1,-1,35,37,39,41,-1,43,-1,-1,-1,-1,-1,-1,-1,-1,-1,-1,-1,-1,-1,-1,-1,-1,-1,-1],"loss_changes":[9.011969E4,2.3313008E4,1.1751379E4,3.0258906E3,1.5433975E4,8.617907E3,3.0277852E3,1.2114844E3,1.0166064E4,1.59375E0,6.2010977E3,0E0,4.9634736E3,0E0,3.2825117E3,2.1952734E2,1.5138824E4,2.5512695E0,1.6473701E3,0E0,0E0,4.696035E3,1.6325389E4,5.5326025E2,4.599508E3,0E0,3.7297168E3,0E0,0E0,0E0,0E0,0E0,0E0,0E0,0E0,0E0,0E0,0E0,0E0,0E0,0E0,0E0,0E0,0E0,0E0],"parents":[2147483647,0,0,1,1,2,2,3,3,4,4,5,5,6,6,7,7,8,8,9,9,10,10,12,12,14,14,15,15,16,16,17,17,18,18,21,21,22,22,23,23,24,24,26,26],"right_children":[2,4,6,8,10,12,14,16,18,20,22,-1,24,-1,26,28,30,32,34,-1,-1,36,38,40,42,-1,44,-1,-1,-1,-1,-1,-1,-1,-1,-1,-1,-1,-1,-1,-1,-1,-1,-1,-1],"split_conditions":[3.881643E-3,3.8409655E-3,3.8409655E-3,3.5149814E-3,9.962338E-1,9.9589545E-1,9.962338E-1,3.895996E-3,9.961224E-1,3.5827844E-3,3.895996E-3,6.527897E-2,-5.972523E-1,6.3628815E-2,9.9589545E-1,3.5216517E-3,9.96272E-1,8.201377E-1,8.201377E-1,6.330907E-2,6.585921E-2,3.5216517E-3,9.96272E-1,-8.0636805E-1,3.895996E-3,6.4576454E-2,9.961062E-1,-6.1659325E-2,-4.388319E-2,1.2220545E-1,-4.8763633E-2,8.0834515E-2,7.55465E-2,-4.3809026E-2,-1.292288E-2,-6.909497E-2,5.678038E-3,1.0391792E-1,-1.2195709E-2,-6.979787E-2,-3.0915221E-2,-3.7610758E-2,1.6684487E-2,3.756691E-2,-2.0854773E-2],"split_indices":[38,50,50,28,50,38,50,31,28,48,31,0,3,0,38,33,31,0,0,0,0,33,31,3,31,0,26,0,0,0,0,0,0,0,0,0,0,0,0,0,0,0,0,0,0],"split_type":[0,0,0,0,0,0,0,0,0,0,0,0,0,0,0,0,0,0,0,0,0,0,0,0,0,0,0,0,0,0,0,0,0,0,0,0,0,0,0,0,0,0,0,0,0],"sum_hessian":[2.6081616E5,1.4692392E5,1.1389224E5,8.886766E4,5.805626E4,4.036935E4,7.352289E4,6.229096E4,2.6576697E4,7.8841685E3,5.0172094E4,6.3330137E3,3.403634E4,1.7253162E4,5.6269727E4,1.6625002E4,4.566596E4,2.049016E3,2.452768E4,6.346901E3,1.5372677E3,9.998745E3,4.0173348E4,3.7200127E3,3.0316326E4,1.0720449E4,4.5549277E4,1.4640971E4,1.9840312E3,1.3328047E3,4.4333156E4,1.3775797E3,6.714364E2,1.8934043E4,5.593637E3,6.9993945E3,2.9993503E3,3.2968875E3,3.687646E4,2.0866096E3,1.6334032E3,4.596874E3,2.5719451E4,4.2630926E4,2.9183533E3],"tree_param":{"num_deleted":"0","num_feature":"60","num_nodes":"45","size_leaf_vector":"1"}},{"base_weights":[1.9818798E-4,-4.9883822E-1,6.4682776E-1,-1.0332896E0,-3.5813448E-1,6.358584E-2,4.9936655E-1,-1.0561386E0,-1.573812E-1,-6.7195386E-1,-3.1614618E-4,-9.427016E-1,5.701057E-1,-1.1509593E0,-8.6415863E-1,2.0107985E0,-1.1174204E0,-7.5097287E-1,2.5767618E-1,1.8674662E0,-3.34714E-1,-1.0255257E0,7.351921E-1,-3.018133E-1,6.789898E-1,-6.1932456E-2,-5.2948263E-2,7.9231165E-2,-5.0133403E-2,1.1246401E-1,8.980658E-2,-5.843941E-2,8.193147E-2,-6.2299907E-2,-2.95739E-2,9.772507E-2,-1.9219782E-2,9.185382E-2,1.0684302E-1,-5.3274762E-2,-7.6485127E-3,-5.9989076E-2,-1.9364337E-2,6.5560296E-2,-6.2990184E-3,-3.978721E-2,2.321142E-2,-1.3244054E-2,3.8538374E-2],"categories":[],"categories_nodes":[],"categories_segments":[],"categories_sizes":[],"default_left":[0,0,0,0,0,0,0,0,0,0,0,0,0,0,0,0,0,0,0,0,0,0,0,0,0,0,0,0,0,0,0,0,0,0,0,0,0,0,0,0,0,0,0,0,0,0,0,0,0],"id":18,"left_children":[1,3,5,7,9,-1,11,13,15,17,19,21,23,25,27,29,31,33,35,37,39,41,43,45,47,-1,-1,-1,-1,-1,-1,-1,-1,-1,-1,-1,-1,-1,-1,-1,-1,-1,-1,-1,-1,-1,-1,-1,-1],"loss_changes":[8.279876E4,1.0890121E4,1.0298262E4,6.038613E2,1.2873196E4,0E0,9.225236E3,5.344336E2,1.601818E3,4.486754E3,3.3457598E4,5.884363E2,8.183963E3,1.5749023E2,3.3012769E3,8.051636E0,7.74104E1,4.443707E3,5.214513E3,6.2666016E1,6.0341133E3,4.4777637E2,9.913001E1,3.6215051E3,6.6385156E3,0E0,0E0,0E0,0E0,0E0,0E0,0E0,0E0,0E0,0E0,0E0,0E0,0E0,0E0,0E0,0E0,0E0,0E0,0E0,0E0,0E0,0E0,0E0,0E0],"parents":[2147483647,0,0,1,1,2,2,3,3,4,4,6,6,7,7,8,8,9,9,10,10,11,11,12,12,13,13,14,14,15,15,16,16,17,17,18,18,19,19,20,20,21,21,22,22,23,23,24,24],"right_children":[2,4,6,8,10,-1,12,14,16,18,20,22,24,26,28,30,32,34,36,38,40,42,44,46,48,-1,-1,-1,-1,-1,-1,-1,-1,-1,-1,-1,-1,-1,-1,-1,-1,-1,-1,-1,-1,-1,-1,-1,-1],"split_conditions":[3.881643E-3,-7.654348E-1,9.9589545E-1,4.217624E-3,4.1286033E-3,6.358584E-2,-7.654348E-1,3.5149814E-3,9.963587E-1,3.5216517E-3,9.961265E-1,2.053304E0,3.895996E-3,-8.87913E-1,9.961224E-1,3.5149814E-3,2.053304E0,3.895996E-3,9.9638736E-1,9.9630004E-1,3.895996E-3,3.949488E-3,3.0424426E0,3.5216517E-3,-1.3771507E0,-6.1932456E-2,-5.2948263E-2,7.9231165E-2,-5.0133403E-2,1.1246401E-1,8.980658E-2,-5.843941E-2,8.193147E-2,-6.2299907E-2,-2.95739E-2,9.772507E-2,-1.9219782E-2,9.185382E-2,1.0684302E-1,-5.3274762E-2,-7.6485127E-3,-5.9989076E-2,-1.9364337E-2,6.5560296E-2,-6.2990184E-3,-3.978721E-2,2.321142E-2,-1.3244054E-2,3.8538374E-2],"split_indices":[38,3,38,22,40,0,3,28,22,33,40,14,31,3,28,28,14,31,33,47,31,59,14,33,13,0,0,0,0,0,0,0,0,0,0,0,0,0,0,0,0,0,0,0,0,0,0,0,0],"split_type":[0,0,0,0,0,0,0,0,0,0,0,0,0,0,0,0,0,0,0,0,0,0,0,0,0,0,0,0,0,0,0,0,0,0,0,0,0,0,0,0,0,0,0,0,0,0,0,0,0],"sum_hessian":[2.5658581E5,1.4482069E5,1.1176513E5,3.0179607E4,1.1464107E5,2.133734E4,9.04278E4,2.9412152E4,7.674565E2,6.1075133E4,5.3565938E4,4.227842E3,8.619995E4,1.9684707E4,9.727443E3,2.3519377E2,5.3226276E2,5.6290598E4,4.7845347E3,8.1332134E3,4.5432727E4,4.029335E3,1.985069E2,9.569314E3,7.663064E4,1.0071739E4,9.612969E3,5.2019525E2,9.207248E3,1.0692674E2,1.2826703E2,5.2308923E2,9.173512E0,1.37153545E4,4.2575246E4,1.3128848E3,3.47165E3,7.3157563E3,8.174571E2,9.047675E3,3.638505E4,3.1644714E3,8.6486334E2,1.1863365E2,7.987325E1,5.8179556E3,3.7513591E3,6.790727E3,6.983991E4],"tree_param":{"num_deleted":"0","num_feature":"60","num_nodes":"49","size_leaf_vector":"1"}},{"base_weights":[1.3885597E-3,-4.7829676E-1,6.23039E-1,-7.961468E-1,-3.6612847E-3,2.0038871E-1,8.6197877E-1,-5.878095E-1,-9.560276E-1,1.2581797E0,-1.9598599E-1,6.344029E-2,1.4769891E-2,6.229147E-2,7.4705577E-1,-7.632678E-1,-1.9298206E-1,-1.1799058E0,-8.8157254E-1,6.2437665E-2,6.480072E-2,-4.3393156E-1,3.0548364E-1,3.9966106E-1,-3.4994018E-1,6.282358E-2,6.326237E-1,-4.138662E-2,-6.4617493E-3,7.6683275E-2,-1.9454287E-2,-5.9751213E-2,-3.6433857E-2,1.1610973E-1,-4.870962E-2,-4.4043865E-3,-3.7739225E-2,7.7826016E-2,2.2146145E-3,3.1347012E-3,4.2451438E-2,-2.3481753E-2,2.8635535E-2,1.9360129E-2,4.752777E-2],"categories":[],"categories_nodes":[],"categories_segments":[],"categories_sizes":[],"default_left":[0,0,0,0,0,0,0,0,0,0,0,0,0,0,0,0,0,0,0,0,0,0,0,0,0,0,0,0,0,0,0,0,0,0,0,0,0,0,0,0,0,0,0,0,0],"id":19,"left_children":[1,3,5,7,9,11,13,15,17,19,21,-1,23,-1,25,27,29,31,33,-1,-1,35,37,39,41,-1,43,-1,-1,-1,-1,-1,-1,-1,-1,-1,-1,-1,-1,-1,-1,-1,-1,-1,-1],"loss_changes":[7.550186E4,2.1560752E4,1.1136645E4,2.850543E3,1.3911289E4,7.8989106E3,3.1068594E3,2.57471E3,8.062031E2,1.0849609E0,5.935404E3,0E0,4.763735E3,0E0,3.1598906E3,1.0516445E3,3.8731152E3,8.155859E1,1.078726E4,0E0,0E0,3.74333E3,5.23054E3,2.5001094E3,1.924614E3,0E0,3.4544062E3,0E0,0E0,0E0,0E0,0E0,0E0,0E0,0E0,0E0,0E0,0E0,0E0,0E0,0E0,0E0,0E0,0E0,0E0],"parents":[2147483647,0,0,1,1,2,2,3,3,4,4,5,5,6,6,7,7,8,8,9,9,10,10,12,12,14,14,15,15,16,16,17,17,18,18,21,21,22,22,23,23,24,24,26,26],"right_children":[2,4,6,8,10,12,14,16,18,20,22,-1,24,-1,26,28,30,32,34,-1,-1,36,38,40,42,-1,44,-1,-1,-1,-1,-1,-1,-1,-1,-1,-1,-1,-1,-1,-1,-1,-1,-1,-1],"split_conditions":[3.881643E-3,3.8409655E-3,3.8409655E-3,-3.732929E-1,9.962338E-1,9.9589545E-1,9.962338E-1,3.5149814E-3,3.895996E-3,3.5827844E-3,3.5149814E-3,6.344029E-2,-6.599806E-1,6.229147E-2,9.9589545E-1,3.5827844E-3,9.961224E-1,5.4263663E0,9.96272E-1,6.2437665E-2,6.480072E-2,-2.1737204E-1,9.961224E-1,3.5149814E-3,-1.7708613E-1,6.282358E-2,3.5149814E-3,-4.138662E-2,-6.4617493E-3,7.6683275E-2,-1.9454287E-2,-5.9751213E-2,-3.6433857E-2,1.1610973E-1,-4.870962E-2,-4.4043865E-3,-3.7739225E-2,7.7826016E-2,2.2146145E-3,3.1347012E-3,4.2451438E-2,-2.3481753E-2,2.8635535E-2,1.9360129E-2,4.752777E-2],"split_indices":[38,50,50,1,50,38,50,28,31,48,28,0,1,0,38,48,28,16,31,0,0,1,28,28,4,0,28,0,0,0,0,0,0,0,0,0,0,0,0,0,0,0,0,0,0],"split_type":[0,0,0,0,0,0,0,0,0,0,0,0,0,0,0,0,0,0,0,0,0,0,0,0,0,0,0,0,0,0,0,0,0,0,0,0,0,0,0,0,0,0,0,0,0],"sum_hessian":[2.5319289E5,1.4291519E5,1.10277695E5,8.559437E4,5.7320824E4,3.9828543E4,7.044915E4,3.7167223E4,4.8427145E4,7.580391E3,4.9740434E4,5.894443E3,3.3934098E4,1.6230006E4,5.4219145E4,2.5731438E4,1.1435787E4,1.2082268E4,3.6344875E4,6.095683E3,1.484708E3,3.3733934E4,1.6006499E4,1.6510209E4,1.742389E4,9.943559E3,4.4275586E4,2.3356396E4,2.3750413E3,1.1656538E3,1.0270133E4,1.1688978E4,3.9328967E2,1.0205196E3,3.5324355E4,1.6235327E4,1.7498607E4,2.7637788E3,1.324272E4,9.435761E3,7.0744478E3,1.5423501E4,2.0003892E3,2.4988457E4,1.9287129E4],"tree_param":{"num_deleted":"0","num_feature":"60","num_nodes":"45","size_leaf_vector":"1"}},{"base_weights":[-2.5960835E-4,-4.6316972E-1,6.012394E-1,-7.7319485E-1,-6.1262688E-3,1.8751392E-1,8.3853424E-1,-8.717332E-1,-4.358772E-1,1.2424345E0,-1.8969728E-1,6.261748E-2,9.441355E-3,6.1548997E-2,7.2373605E-1,-1.0613263E0,-7.4774474E-1,1.9751017E0,-7.8924394E-1,6.168297E-2,6.38683E-2,-8.216352E-1,-9.260639E-3,-3.1416965E-1,4.0396053E-1,6.204176E-2,6.099446E-1,-5.718581E-2,-4.7185738E-2,-4.1212477E-2,-7.1850875E-3,1.04597606E-1,9.249851E-2,-2.953108E-2,-4.9463443E-2,-4.9343396E-2,-1.937174E-2,1.7227069E-2,-1.9947274E-2,-6.423128E-3,-5.6922853E-2,8.3927654E-2,-1.8124148E-3,1.4278093E-2,4.3355864E-2],"categories":[],"categories_nodes":[],"categories_segments":[],"categories_sizes":[],"default_left":[0,0,0,0,0,0,0,0,0,0,0,0,0,0,0,0,0,0,0,0,0,0,0,0,0,0,0,0,0,0,0,0,0,0,0,0,0,0,0,0,0,0,0,0,0],"id":20,"left_children":[1,3,5,7,9,11,13,15,17,19,21,-1,23,-1,25,27,29,31,33,-1,-1,35,37,39,41,-1,43,-1,-1,-1,-1,-1,-1,-1,-1,-1,-1,-1,-1,-1,-1,-1,-1,-1,-1],"loss_changes":[6.936266E4,1.9946875E4,1.0635957E4,2.7875898E3,1.3041051E4,7.488058E3,3.1008984E3,1.5251445E3,1.6158938E4,6.591797E-1,5.6561875E3,0E0,4.3196724E3,0E0,3.1337148E3,2.4760352E2,1.8137188E3,3.1582031E1,6.565947E2,0E0,0E0,7.900762E2,5.320344E3,2.845179E3,8.55485E3,0E0,3.6422764E3,0E0,0E0,0E0,0E0,0E0,0E0,0E0,0E0,0E0,0E0,0E0,0E0,0E0,0E0,0E0,0E0,0E0,0E0],"parents":[2147483647,0,0,1,1,2,2,3,3,4,4,5,5,6,6,7,7,8,8,9,9,10,10,12,12,14,14,15,15,16,16,17,17,18,18,21,21,22,22,23,23,24,24,26,26],"right_children":[2,4,6,8,10,12,14,16,18,20,22,-1,24,-1,26,28,30,32,34,-1,-1,36,38,40,42,-1,44,-1,-1,-1,-1,-1,-1,-1,-1,-1,-1,-1,-1,-1,-1,-1,-1,-1,-1],"split_conditions":[3.881643E-3,3.8409655E-3,3.8409655E-3,8.201377E-1,9.962338E-1,9.9589545E-1,9.962338E-1,-5.3913504E-1,1.1611785E0,3.5827844E-3,-6.8618655E-1,6.261748E-2,8.201377E-1,6.1548997E-2,9.9589545E-1,-7.654348E-1,-1.7708613E-1,3.5149814E-3,-2.3418076E-1,6.168297E-2,6.38683E-2,8.201377E-1,-1.0384027E-1,8.1675816E-1,1.1611785E0,6.204176E-2,8.201377E-1,-5.718581E-2,-4.7185738E-2,-4.1212477E-2,-7.1850875E-3,1.04597606E-1,9.249851E-2,-2.953108E-2,-4.9463443E-2,-4.9343396E-2,-1.937174E-2,1.7227069E-2,-1.9947274E-2,-6.423128E-3,-5.6922853E-2,8.3927654E-2,-1.8124148E-3,1.4278093E-2,4.3355864E-2],"split_indices":[38,50,50,0,50,38,50,3,0,48,3,0,0,0,38,3,4,28,1,0,0,0,1,0,0,0,0,0,0,0,0,0,0,0,0,0,0,0,0,0,0,0,0,0,0],"split_type":[0,0,0,0,0,0,0,0,0,0,0,0,0,0,0,0,0,0,0,0,0,0,0,0,0,0,0,0,0,0,0,0,0,0,0,0,0,0,0,0,0,0,0,0,0],"sum_hessian":[2.4910973E5,1.4077238E5,1.0833737E5,8.387617E4,5.6896203E4,3.948928E4,6.8848086E4,6.4912215E4,1.8963957E4,7.29223E3,4.9603973E4,5.6568E3,3.383248E4,1.5579329E4,5.3268754E4,2.5662951E4,3.924926E4,2.4235789E3,1.6540377E4,5.8571636E3,1.4350662E3,1.1016757E4,3.8587215E4,1.8586662E4,1.5245819E4,9.606105E3,4.366265E4,1.5086052E4,1.05769E4,3.4836676E4,4.4125864E3,1.2451315E3,1.1784473E3,8.30127E3,8.239108E3,7.979085E3,3.0376719E3,2.0224834E4,1.836238E4,1.5170087E4,3.4165752E3,3.9130518E3,1.1332768E4,1.930922E4,2.4353428E4],"tree_param":{"num_deleted":"0","num_feature":"60","num_nodes":"45","size_leaf_vector":"1"}},{"base_weights":[1.795796E-3,-4.4685474E-1,5.847921E-1,-7.4983054E-1,-5.1982794E-3,1.8698455E-1,8.161102E-1,-8.709581E-1,-4.7135714E-1,1.227857E0,-1.8097015E-1,6.184886E-2,1.6347025E-2,6.0859073E-2,7.009458E-1,-1.141077E0,-7.9527634E-1,1.5362723E0,-6.4152855E-1,6.0983278E-2,6.301527E-2,-4.09826E-1,3.0094612E-1,3.816785E-1,-3.2838577E-1,6.1319288E-2,5.885436E-1,-5.807377E-2,-4.771918E-2,-5.471014E-2,-3.4009382E-2,7.9732716E-2,7.562191E-2,-4.707479E-2,-2.074157E-2,-4.1248236E-2,-7.942523E-3,7.592978E-2,2.6809669E-3,3.1156982E-3,4.0462866E-2,-1.9860005E-2,5.7093304E-2,1.719484E-2,4.555833E-2],"categories":[],"categories_nodes":[],"categories_segments":[],"categories_sizes":[],"default_left":[0,0,0,0,0,0,0,0,0,0,0,0,0,0,0,0,0,0,0,0,0,0,0,0,0,0,0,0,0,0,0,0,0,0,0,0,0,0,0,0,0,0,0,0,0],"id":21,"left_children":[1,3,5,7,9,11,13,15,17,19,21,-1,23,-1,25,27,29,31,33,-1,-1,35,37,39,41,-1,43,-1,-1,-1,-1,-1,-1,-1,-1,-1,-1,-1,-1,-1,-1,-1,-1,-1,-1],"loss_changes":[6.4047266E4,1.8516283E4,9.798953E3,2.768004E3,1.2203239E4,7.0153613E3,3.1092656E3,1.1683203E3,8.501174E3,3.3007812E-1,5.435147E3,0E0,4.2421704E3,0E0,3.0890664E3,4.6551758E1,1.5363848E3,2.939453E-1,1.5593682E3,0E0,0E0,3.481151E3,4.778607E3,2.2330369E3,1.7538463E3,0E0,3.401376E3,0E0,0E0,0E0,0E0,0E0,0E0,0E0,0E0,0E0,0E0,0E0,0E0,0E0,0E0,0E0,0E0,0E0,0E0],"parents":[2147483647,0,0,1,1,2,2,3,3,4,4,5,5,6,6,7,7,8,8,9,9,10,10,12,12,14,14,15,15,16,16,17,17,18,18,21,21,22,22,23,23,24,24,26,26],"right_children":[2,4,6,8,10,12,14,16,18,20,22,-1,24,-1,26,28,30,32,34,-1,-1,36,38,40,42,-1,44,-1,-1,-1,-1,-1,-1,-1,-1,-1,-1,-1,-1,-1,-1,-1,-1,-1,-1],"split_conditions":[3.881643E-3,3.8409655E-3,3.8409655E-3,3.5149814E-3,9.962338E-1,9.9589545E-1,9.962338E-1,-7.654348E-1,9.961224E-1,3.5827844E-3,3.5149814E-3,6.184886E-2,-6.599806E-1,6.0859073E-2,9.9589545E-1,3.5827844E-3,3.895996E-3,-5.1359737E-1,-5.2634966E-1,6.0983278E-2,6.301527E-2,3.9304006E-3,9.961224E-1,3.5149814E-3,2.053304E0,6.1319288E-2,3.5149814E-3,-5.807377E-2,-4.771918E-2,-5.471014E-2,-3.4009382E-2,7.9732716E-2,7.562191E-2,-4.707479E-2,-2.074157E-2,-4.1248236E-2,-7.942523E-3,7.592978E-2,2.6809669E-3,3.1156982E-3,4.0462866E-2,-1.9860005E-2,5.7093304E-2,1.719484E-2,4.555833E-2],"split_indices":[38,50,50,28,50,38,50,3,28,48,28,0,1,0,38,48,31,3,3,0,0,27,28,28,14,0,28,0,0,0,0,0,0,0,0,0,0,0,0,0,0,0,0,0,0],"split_type":[0,0,0,0,0,0,0,0,0,0,0,0,0,0,0,0,0,0,0,0,0,0,0,0,0,0,0,0,0,0,0,0,0,0,0,0,0,0,0,0,0,0,0,0,0],"sum_hessian":[2.4486297E5,1.383752E5,1.06487766E5,8.207272E4,5.630249E4,3.915429E4,6.733348E4,5.719325E4,2.4879465E4,7.023815E3,4.927867E4,5.472685E3,3.36816E4,1.5018947E4,5.2314527E4,1.2514194E4,4.4679055E4,1.9434316E3,2.2936033E4,5.6388765E3,1.3849386E3,3.3411926E4,1.5866746E4,1.6352204E4,1.7329398E4,9.217257E3,4.3097273E4,1.1276852E4,1.2373425E3,1.2417609E4,3.2261447E4,5.442873E2,1.3991443E3,9.871217E3,1.3064815E4,1.2587936E4,2.082399E4,2.6778591E3,1.3188887E4,9.361281E3,6.990924E3,1.6555268E4,7.7413055E2,2.4511857E4,1.8585416E4],"tree_param":{"num_deleted":"0","num_feature":"60","num_nodes":"45","size_leaf_vector":"1"}},{"base_weights":[2.231465E-4,-4.3340418E-1,5.645557E-1,-7.3016566E-1,-5.904876E-3,6.058802E-2,4.2705277E-1,-5.1129836E-1,-8.890657E-1,6.071455E-2,-1.7407084E-1,1.3675538E-2,6.905387E-1,-6.8192375E-1,-1.2510505E-1,-9.332265E-1,-4.5294526E-1,-1.4245892E-2,-8.862059E-1,-8.9322954E-1,1.4481278E-1,6.0408514E-2,5.665076E-1,-4.5216054E-2,-2.4021555E-2,7.357522E-2,-1.5465843E-2,-5.539435E-2,-4.2071503E-2,1.1089971E-1,-4.741733E-2,-8.819374E-3,9.554478E-2,-6.733849E-2,-3.971716E-2,-6.444318E-2,-2.675215E-2,-8.680171E-3,2.6435835E-2,-5.4921504E-2,3.078801E-2],"categories":[],"categories_nodes":[],"categories_segments":[],"categories_sizes":[],"default_left":[0,0,0,0,0,0,0,0,0,0,0,0,0,0,0,0,0,0,0,0,0,0,0,0,0,0,0,0,0,0,0,0,0,0,0,0,0,0,0,0,0],"id":22,"left_children":[1,3,5,7,9,-1,11,13,15,-1,17,19,21,23,25,27,29,31,33,35,37,-1,39,-1,-1,-1,-1,-1,-1,-1,-1,-1,-1,-1,-1,-1,-1,-1,-1,-1,-1],"loss_changes":[5.89137E4,1.727147E4,9.308887E3,2.7942266E3,1.1446762E4,0E0,9.397517E3,2.2273506E3,8.9621094E2,0E0,5.580172E3,3.994674E3,3.3823516E3,1.0501533E3,3.0473271E3,6.7685547E2,5.6688135E3,1.2499345E4,3.7913525E2,6.0063306E2,3.5872998E3,0E0,3.486585E3,0E0,0E0,0E0,0E0,0E0,0E0,0E0,0E0,0E0,0E0,0E0,0E0,0E0,0E0,0E0,0E0,0E0,0E0],"parents":[2147483647,0,0,1,1,2,2,3,3,4,4,6,6,7,7,8,8,10,10,11,11,12,12,13,13,14,14,15,15,16,16,17,17,18,18,19,19,20,20,22,22],"right_children":[2,4,6,8,10,-1,12,14,16,-1,18,20,22,24,26,28,30,32,34,36,38,-1,40,-1,-1,-1,-1,-1,-1,-1,-1,-1,-1,-1,-1,-1,-1,-1,-1,-1,-1],"split_conditions":[3.881643E-3,3.8409655E-3,9.9589545E-1,-4.4068554E-1,9.962338E-1,6.058802E-2,3.8409655E-3,3.5149814E-3,3.5827844E-3,6.071455E-2,9.959101E-1,-5.3913504E-1,9.962338E-1,3.9304006E-3,9.961224E-1,-5.972523E-1,9.958115E-1,4.1644233E-3,3.895996E-3,-8.0636805E-1,8.201377E-1,6.0408514E-2,-8.0636805E-1,-4.5216054E-2,-2.4021555E-2,7.357522E-2,-1.5465843E-2,-5.539435E-2,-4.2071503E-2,1.1089971E-1,-4.741733E-2,-8.819374E-3,9.554478E-2,-6.733849E-2,-3.971716E-2,-6.444318E-2,-2.675215E-2,-8.680171E-3,2.6435835E-2,-5.4921504E-2,3.078801E-2],"split_indices":[38,50,38,1,50,0,50,28,48,0,18,3,50,27,28,3,48,18,31,3,0,0,3,0,0,0,0,0,0,0,0,0,0,0,0,0,0,0,0,0,0],"split_type":[0,0,0,0,0,0,0,0,0,0,0,0,0,0,0,0,0,0,0,0,0,0,0,0,0,0,0,0,0,0,0,0,0,0,0,0,0,0,0,0,0],"sum_hessian":[2.4074703E5,1.3613927E5,1.0460777E5,8.035661E4,5.578266E4,1.832887E4,8.62789E4,3.3802125E4,4.655448E4,6.7559463E3,4.902671E4,3.3586633E4,5.269227E4,2.3443643E4,1.0358483E4,4.227286E4,4.2816226E3,4.004125E4,8.985464E3,4.2423086E3,2.9344322E4,1.018354E4,4.250873E4,1.1142088E4,1.2301555E4,1.0707798E3,9.287704E3,1.4559521E4,2.7713336E4,6.693527E2,3.6122698E3,3.6931656E4,3.1095942E3,1.4919163E3,7.4935474E3,2.0145475E3,2.2277612E3,1.6040563E4,1.3303759E4,1.2207623E3,4.128797E4],"tree_param":{"num_deleted":"0","num_feature":"60","num_nodes":"41","size_leaf_vector":"1"}},{"base_weights":[1.2658946E-3,-4.15588E-1,5.450222E-1,-7.062565E-1,-1.190038E-3,5.996532E-2,4.0950626E-1,-8.075184E-1,-3.6383834E-1,6.0084887E-2,-1.604551E-1,1.0100091E-2,6.6832745E-1,-1.026868E0,-6.9523185E-1,1.941502E0,-7.1671665E-1,-3.6925137E-1,3.673566E-1,-8.925232E-1,1.3684863E-1,5.979919E-2,5.455274E-1,-5.4711223E-2,-4.456428E-2,-4.2854995E-2,-2.1010892E-2,1.0624015E-1,9.362082E-2,-2.6442233E-2,-4.6722203E-2,-2.6699701E-2,1.1355339E-2,1.01071715E-1,-1.1961806E-2,-9.772043E-3,-5.7772484E-2,2.4167482E-2,-9.7177895E-3,1.11551555E-2,4.025769E-2],"categories":[],"categories_nodes":[],"categories_segments":[],"categories_sizes":[],"default_left":[0,0,0,0,0,0,0,0,0,0,0,0,0,0,0,0,0,0,0,0,0,0,0,0,0,0,0,0,0,0,0,0,0,0,0,0,0,0,0,0,0],"id":23,"left_children":[1,3,5,7,9,-1,11,13,15,-1,17,19,21,23,25,27,29,31,33,35,37,-1,39,-1,-1,-1,-1,-1,-1,-1,-1,-1,-1,-1,-1,-1,-1,-1,-1,-1,-1],"loss_changes":[5.37602E4,1.6171314E4,9.125205E3,2.7357305E3,1.060374E4,0E0,8.814154E3,1.4991914E3,1.4653404E4,0E0,5.386733E3,3.8358948E3,3.3517383E3,1.8730273E2,1.7928145E3,2.6302734E1,6.384717E2,3.4410425E3,1.3902183E4,7.564436E2,3.3741404E3,0E0,3.5132705E3,0E0,0E0,0E0,0E0,0E0,0E0,0E0,0E0,0E0,0E0,0E0,0E0,0E0,0E0,0E0,0E0,0E0,0E0],"parents":[2147483647,0,0,1,1,2,2,3,3,4,4,6,6,7,7,8,8,10,10,11,11,12,12,13,13,14,14,15,15,16,16,17,17,18,18,19,19,20,20,22,22],"right_children":[2,4,6,8,10,-1,12,14,16,-1,18,20,22,24,26,28,30,32,34,36,38,-1,40,-1,-1,-1,-1,-1,-1,-1,-1,-1,-1,-1,-1,-1,-1,-1,-1,-1,-1],"split_conditions":[3.881643E-3,3.8409655E-3,9.9589545E-1,8.201377E-1,9.962338E-1,5.996532E-2,3.8409655E-3,-5.972523E-1,1.1611785E0,6.0084887E-2,8.201377E-1,-1.3771507E0,9.962338E-1,-7.654348E-1,4.1286033E-3,4.1286033E-3,-1.3602242E-1,3.7124327E-3,1.1611785E0,-7.9265547E-1,-6.737786E-1,5.979919E-2,8.201377E-1,-5.4711223E-2,-4.456428E-2,-4.2854995E-2,-2.1010892E-2,1.0624015E-1,9.362082E-2,-2.6442233E-2,-4.6722203E-2,-2.6699701E-2,1.1355339E-2,1.01071715E-1,-1.1961806E-2,-9.772043E-3,-5.7772484E-2,2.4167482E-2,-9.7177895E-3,1.11551555E-2,4.025769E-2],"split_indices":[38,50,38,0,50,0,50,3,0,0,0,13,50,3,40,40,1,21,0,9,1,0,0,0,0,0,0,0,0,0,0,0,0,0,0,0,0,0,0,0,0],"split_type":[0,0,0,0,0,0,0,0,0,0,0,0,0,0,0,0,0,0,0,0,0,0,0,0,0,0,0,0,0,0,0,0,0,0,0,0,0,0,0,0,0],"sum_hessian":[2.3717506E5,1.342538E5,1.02921266E5,7.890633E4,5.534747E4,1.7658148E4,8.526312E4,6.0896348E4,1.8009979E4,6.4705483E3,4.887692E4,3.3526668E4,5.173645E4,2.061575E4,4.0280598E4,2.3902256E3,1.5619753E4,3.5022656E4,1.3854264E4,4.1274595E3,2.939921E4,9.765705E3,4.1970746E4,1.3768554E4,6.847197E3,2.5355004E4,1.4925594E4,6.461295E2,1.7440962E3,8.386587E3,7.233165E3,2.7441975E4,7.580682E3,3.7168093E3,1.0137454E4,1.1309023E3,2.996557E3,1.4367594E4,1.5031616E4,1.8722072E4,2.3248672E4],"tree_param":{"num_deleted":"0","num_feature":"60","num_nodes":"41","size_leaf_vector":"1"}},{"base_weights":[-2.5630693E-4,-4.0322027E-1,5.268469E-1,-6.876993E-1,-3.8582066E-3,5.9383817E-2,3.9413437E-1,-9.4764316E-1,-5.5508655E-1,5.9495546E-2,-1.5676597E-1,1.0354877E-2,6.460566E-1,-1.0541104E0,-8.027862E-1,-4.1912773E-1,-1.0129099E0,-8.5242456E-1,-6.5278267E-3,-2.6577732E-1,4.1095483E-1,5.922869E-2,5.243079E-1,-5.4244228E-2,-3.8140472E-2,-4.9067516E-2,-3.1573765E-2,-2.573515E-2,1.1386546E-1,-5.4757733E-2,-3.6536474E-2,-4.517879E-2,1.5219966E-2,7.585991E-3,-4.6280026E-2,-3.3391226E-2,5.86716E-4,7.026846E-2,1.0841667E-2,3.0094085E-2,-2.7015615E-2],"categories":[],"categories_nodes":[],"categories_segments":[],"categories_sizes":[],"default_left":[0,0,0,0,0,0,0,0,0,0,0,0,0,0,0,0,0,0,0,0,0,0,0,0,0,0,0,0,0,0,0,0,0,0,0,0,0,0,0,0,0],"id":24,"left_children":[1,3,5,7,9,-1,11,13,15,-1,17,19,21,23,25,27,29,31,33,35,37,-1,39,-1,-1,-1,-1,-1,-1,-1,-1,-1,-1,-1,-1,-1,-1,-1,-1,-1,-1],"loss_changes":[4.9561688E4,1.50239E4,8.86573E3,2.6616797E3,1.0042146E4,0E0,8.139755E3,4.014922E2,3.1828945E3,0E0,5.0969375E3,3.6908845E3,3.3317637E3,1.339375E2,3.375713E2,1.0163662E4,2.7094727E2,5.128052E2,5.8333867E3,2.2037222E3,2.6278044E3,0E0,3.4240654E3,0E0,0E0,0E0,0E0,0E0,0E0,0E0,0E0,0E0,0E0,0E0,0E0,0E0,0E0,0E0,0E0,0E0,0E0],"parents":[2147483647,0,0,1,1,2,2,3,3,4,4,6,6,7,7,8,8,10,10,11,11,12,12,13,13,14,14,15,15,16,16,17,17,18,18,19,19,20,20,22,22],"right_children":[2,4,6,8,10,-1,12,14,16,-1,18,20,22,24,26,28,30,32,34,36,38,-1,40,-1,-1,-1,-1,-1,-1,-1,-1,-1,-1,-1,-1,-1,-1,-1,-1,-1,-1],"split_conditions":[3.881643E-3,3.8409655E-3,9.9589545E-1,-5.972523E-1,9.962338E-1,5.9383817E-2,3.8409655E-3,-8.0636805E-1,9.961923E-1,5.9495546E-2,-7.654348E-1,3.5149814E-3,9.962338E-1,3.5827844E-3,1.4173499E-1,3.7504816E-3,3.5149814E-3,4.217624E-3,9.961923E-1,3.9304006E-3,9.961224E-1,5.922869E-2,9.961062E-1,-5.4244228E-2,-3.8140472E-2,-4.9067516E-2,-3.1573765E-2,-2.573515E-2,1.1386546E-1,-5.4757733E-2,-3.6536474E-2,-4.517879E-2,1.5219966E-2,7.585991E-3,-4.6280026E-2,-3.3391226E-2,5.86716E-4,7.026846E-2,1.0841667E-2,3.0094085E-2,-2.7015615E-2],"split_indices":[38,50,38,3,50,0,50,3,42,0,3,28,50,48,0,42,28,22,42,27,28,0,26,0,0,0,0,0,0,0,0,0,0,0,0,0,0,0,0,0,0],"split_type":[0,0,0,0,0,0,0,0,0,0,0,0,0,0,0,0,0,0,0,0,0,0,0,0,0,0,0,0,0,0,0,0,0,0,0,0,0,0,0,0,0],"sum_hessian":[2.3333534E5,1.3223984E5,1.010955E5,7.722742E4,5.5012418E4,1.6905957E4,8.418955E4,2.608675E4,5.114067E4,6.2455884E3,4.8766832E4,3.3363887E4,5.0825656E4,1.5032128E4,1.1054622E4,3.943242E4,1.1708248E4,8.660557E3,4.0106273E4,1.9750363E4,1.3613522E4,9.370307E3,4.145535E4,1.3593354E4,1.438774E3,5.4104097E3,5.6442124E3,3.8083367E4,1.3490563E3,9.063661E3,2.6445867E3,8.294038E3,3.6651825E2,3.4215773E4,5.890501E3,8.0648877E3,1.1685477E4,2.222454E3,1.1391068E4,3.8640254E4,2.815096E3],"tree_param":{"num_deleted":"0","num_feature":"60","num_nodes":"41","size_leaf_vector":"1"}},{"base_weights":[8.9100865E-4,-3.9155036E-1,3.8478345E-1,-8.5385877E-1,-1.9347058E-1,5.8672197E-2,2.3300518E-1,-1.039589E0,-6.753416E-1,-4.2338353E-1,2.9708904E-1,-7.033109E-2,6.637756E-1,-1.0770849E0,-7.057343E-1,-9.163253E-1,-4.7553155E-1,-9.214907E-1,-2.6600587E-1,1.6281697E0,-1.23143375E-1,6.750335E-2,-1.030629E0,1.4712149E0,2.7036467E-1,-5.601371E-2,-4.115336E-2,1.1475152E-1,-5.433027E-2,-3.5370473E-2,-5.2429374E-2,1.3368422E-1,-2.8162707E-2,-5.021544E-2,-9.886745E-3,9.971102E-2,-2.1270711E-2,8.014814E-2,1.01723805E-1,-2.0247433E-2,1.7961573E-2,-8.3237635E-3,7.899349E-2,-5.548072E-2,3.617165E-2,7.167211E-2,1.0059422E-1,1.8291306E-2,-5.839019E-2],"categories":[],"categories_nodes":[],"categories_segments":[],"categories_sizes":[],"default_left":[0,0,0,0,0,0,0,0,0,0,0,0,0,0,0,0,0,0,0,0,0,0,0,0,0,0,0,0,0,0,0,0,0,0,0,0,0,0,0,0,0,0,0,0,0,0,0,0,0],"id":25,"left_children":[1,3,5,7,9,-1,11,13,15,17,19,21,23,25,27,29,31,33,35,37,39,41,43,45,47,-1,-1,-1,-1,-1,-1,-1,-1,-1,-1,-1,-1,-1,-1,-1,-1,-1,-1,-1,-1,-1,-1,-1,-1],"loss_changes":[3.4597418E4,1.0398855E4,1.3895584E4,1.128627E3,8.966465E3,0E0,1.272104E4,2.081875E2,8.359751E2,4.2430527E3,1.4191098E4,7.5615723E3,1.2777908E4,1.6368555E2,1.9320103E3,2.1680127E2,2.6255808E3,7.7877344E2,1.482178E4,5.9086914E1,2.6214126E3,1.767842E4,9.9424414E2,2.6625586E2,3.7140298E3,0E0,0E0,0E0,0E0,0E0,0E0,0E0,0E0,0E0,0E0,0E0,0E0,0E0,0E0,0E0,0E0,0E0,0E0,0E0,0E0,0E0,0E0,0E0,0E0],"parents":[2147483647,0,0,1,1,2,2,3,3,4,4,6,6,7,7,8,8,9,9,10,10,11,11,12,12,13,13,14,14,15,15,16,16,17,17,18,18,19,19,20,20,21,21,22,22,23,23,24,24],"right_children":[2,4,6,8,10,-1,12,14,16,18,20,22,24,26,28,30,32,34,36,38,40,42,44,46,48,-1,-1,-1,-1,-1,-1,-1,-1,-1,-1,-1,-1,-1,-1,-1,-1,-1,-1,-1,-1,-1,-1,-1,-1],"split_conditions":[3.8409655E-3,-5.3913504E-1,9.962338E-1,-8.0636805E-1,8.201377E-1,5.8672197E-2,8.201377E-1,3.5827844E-3,1.4173499E-1,3.895996E-3,1.1611785E0,8.1675816E-1,1.1611785E0,3.949488E-3,9.958115E-1,-5.227043E-1,4.7233793E-1,4.217624E-3,9.96272E-1,9.9605286E-1,3.5149814E-3,4.80899E-1,2.053304E0,9.9605286E-1,9.961085E-1,-5.601371E-2,-4.115336E-2,1.1475152E-1,-5.433027E-2,-3.5370473E-2,-5.2429374E-2,1.3368422E-1,-2.8162707E-2,-5.021544E-2,-9.886745E-3,9.971102E-2,-2.1270711E-2,8.014814E-2,1.01723805E-1,-2.0247433E-2,1.7961573E-2,-8.3237635E-3,7.899349E-2,-5.548072E-2,3.617165E-2,7.167211E-2,1.0059422E-1,1.8291306E-2,-5.839019E-2],"split_indices":[50,3,50,3,0,0,0,48,0,31,0,0,0,59,48,1,0,22,31,39,28,0,14,39,32,0,0,0,0,0,0,0,0,0,0,0,0,0,0,0,0,0,0,0,0,0,0,0,0],"split_type":[0,0,0,0,0,0,0,0,0,0,0,0,0,0,0,0,0,0,0,0,0,0,0,0,0,0,0,0,0,0,0,0,0,0,0,0,0,0,0,0,0,0,0,0,0,0,0,0,0],"sum_hessian":[2.2964425E5,1.135577E5,1.16086555E5,3.406001E4,7.949769E4,1.8734227E4,9.735233E4,1.6690398E4,1.7369613E4,5.412895E4,2.536874E4,5.7126387E4,4.022594E4,1.5003143E4,1.6872568E3,7.8719517E3,9.497662E3,1.2994844E4,4.1134105E4,6.08661E3,1.9282129E4,4.995686E4,7.169528E3,1.3177535E4,2.7048404E4,1.2820016E4,2.1831272E3,1.8946844E2,1.4977883E3,3.0541265E3,4.817825E3,2.5659225E2,9.241069E3,1.1660199E4,1.3346438E3,2.7092039E3,3.8424902E4,5.735716E3,3.5089398E2,1.2171596E4,7.110534E3,4.3264316E4,6.692544E3,6.8609473E3,3.0858072E2,1.2320446E4,8.5708887E2,2.5365465E4,1.6829397E3],"tree_param":{"num_deleted":"0","num_feature":"60","num_nodes":"49","size_leaf_vector":"1"}},{"base_weights":[1.9951535E-3,-3.7929356E-1,5.013856E-1,-6.4887553E-1,-9.874242E-3,5.8639843E-2,3.7155905E-1,-4.3917733E-1,-8.246241E-1,5.8437742E-2,-1.497561E-1,4.499565E-1,-7.781704E-1,-6.123146E-1,-7.072433E-2,-9.565089E-1,-6.732334E-1,-3.7396448E-3,-8.213584E-1,-8.893892E-1,5.1744443E-1,-1.3893235E0,-5.5990964E-1,-2.6502118E-2,-5.7681132E-2,7.3147886E-2,-1.2346745E-2,-5.011946E-2,-2.9097069E-2,9.928796E-2,-4.248909E-2,-7.893719E-3,9.120684E-2,-2.9017508E-2,-5.0495982E-2,-4.7752112E-2,7.559294E-2,1.1867915E-2,3.9078023E-2,-7.4519016E-2,-2.3379205E-2,-3.9584324E-2,4.2174035E-4],"categories":[],"categories_nodes":[],"categories_segments":[],"categories_sizes":[],"default_left":[0,0,0,0,0,0,0,0,0,0,0,0,0,0,0,0,0,0,0,0,0,0,0,0,0,0,0,0,0,0,0,0,0,0,0,0,0,0,0,0,0,0,0],"id":26,"left_children":[1,3,5,7,9,-1,11,13,15,-1,17,19,21,23,25,27,29,31,33,35,37,39,41,-1,-1,-1,-1,-1,-1,-1,-1,-1,-1,-1,-1,-1,-1,-1,-1,-1,-1,-1,-1],"loss_changes":[4.3135758E4,1.2793107E4,8.548885E3,2.7366074E3,8.935318E3,0E0,7.408538E3,2.1602407E3,8.060254E2,0E0,4.750924E3,6.955326E3,6.991106E2,1.0253818E3,2.926336E3,3.704375E2,8.833421E3,1.1212312E4,3.9260107E2,5.8339795E2,5.418703E3,1.27852295E2,5.0951562E2,0E0,0E0,0E0,0E0,0E0,0E0,0E0,0E0,0E0,0E0,0E0,0E0,0E0,0E0,0E0,0E0,0E0,0E0,0E0,0E0],"parents":[2147483647,0,0,1,1,2,2,3,3,4,4,6,6,7,7,8,8,10,10,11,11,12,12,13,13,14,14,15,15,16,16,17,17,18,18,19,19,20,20,21,21,22,22],"right_children":[2,4,6,8,10,-1,12,14,16,-1,18,20,22,24,26,28,30,32,34,36,38,40,42,-1,-1,-1,-1,-1,-1,-1,-1,-1,-1,-1,-1,-1,-1,-1,-1,-1,-1,-1,-1],"split_conditions":[3.881643E-3,3.8409655E-3,9.9589545E-1,-3.2131484E-1,9.962338E-1,5.8639843E-2,9.961085E-1,3.5149814E-3,4.1286033E-3,5.8437742E-2,9.959101E-1,-7.654348E-1,1.4173499E-1,9.964812E-1,9.961224E-1,-1.7708613E-1,9.961265E-1,4.1644233E-3,-1.3602242E-1,3.582173E-3,8.201377E-1,-1.7708613E-1,3.5149814E-3,-2.6502118E-2,-5.7681132E-2,7.3147886E-2,-1.2346745E-2,-5.011946E-2,-2.9097069E-2,9.928796E-2,-4.248909E-2,-7.893719E-3,9.120684E-2,-2.9017508E-2,-5.0495982E-2,-4.7752112E-2,7.559294E-2,1.1867915E-2,3.9078023E-2,-7.4519016E-2,-2.3379205E-2,-3.9584324E-2,4.2174035E-4],"split_indices":[38,50,38,1,50,0,32,28,40,0,18,3,0,55,28,4,40,18,1,32,0,4,28,0,0,0,0,0,0,0,0,0,0,0,0,0,0,0,0,0,0,0,0],"split_type":[0,0,0,0,0,0,0,0,0,0,0,0,0,0,0,0,0,0,0,0,0,0,0,0,0,0,0,0,0,0,0,0,0,0,0,0,0,0,0,0,0,0,0],"sum_hessian":[2.2653712E5,1.2845836E5,9.8078766E4,7.426388E4,5.4194473E4,1.5890652E4,8.218811E4,3.3863008E4,4.040088E4,5.748754E3,4.844572E4,7.69422E4,5.2459067E3,2.3037129E4,1.082588E4,2.1588574E4,1.8812303E4,3.9794746E4,8.650972E3,3.6904475E3,7.325176E4,1.3790516E3,3.8668552E3,1.999944E4,3.0376897E3,1.1148932E3,9.710986E3,1.9231283E4,2.3572922E3,1.1706665E3,1.7641637E4,3.670088E4,3.0938687E3,3.7991687E3,4.851803E3,3.5928179E3,9.762975E1,3.555198E4,3.7699777E4,1.2422393E3,1.3681245E2,2.7464368E3,1.1204186E3],"tree_param":{"num_deleted":"0","num_feature":"60","num_nodes":"43","size_leaf_vector":"1"}},{"base_weights":[5.132277E-5,-3.6858276E-1,4.822986E-1,-8.62477E-1,-2.271383E-1,5.8149822E-2,3.5484868E-1,-1.0732176E0,-4.147134E-2,1.9750706E0,-3.8402578E-1,-5.6107694E-1,4.5304507E-1,-1.2348312E0,-9.5653427E-1,2.0795422E0,-2.6840883E-1,1.9022963E0,2.5457966E0,-5.5040103E-1,6.9113575E-2,-9.4902503E-1,-1.6179863E-1,-3.2585135E-1,5.545679E-1,-6.355196E-2,-5.7234716E-2,1.3254344E-1,-5.1205248E-2,1.16025165E-1,9.356276E-2,-1.9697424E-2,3.4524094E-2,9.694065E-2,8.59856E-2,1.1858709E-1,1.4979748E-1,-5.484059E-2,-2.2167748E-2,8.847561E-2,-1.98776E-2,-5.5263538E-2,-7.0584626E-3,6.9186665E-2,-2.878896E-2,-3.7191924E-2,1.678928E-2,6.830896E-2,2.2740759E-2],"categories":[],"categories_nodes":[],"categories_segments":[],"categories_sizes":[],"default_left":[0,0,0,0,0,0,0,0,0,0,0,0,0,0,0,0,0,0,0,0,0,0,0,0,0,0,0,0,0,0,0,0,0,0,0,0,0,0,0,0,0,0,0,0,0,0,0,0,0],"id":27,"left_children":[1,3,5,7,9,-1,11,13,15,17,19,21,23,25,27,29,31,33,35,37,39,41,43,45,47,-1,-1,-1,-1,-1,-1,-1,-1,-1,-1,-1,-1,-1,-1,-1,-1,-1,-1,-1,-1,-1,-1,-1,-1],"loss_changes":[3.968125E4,8.837533E3,8.389172E3,4.8728887E3,3.3979113E4,0E0,7.326366E3,4.214414E2,2.7700457E3,2.6681055E2,6.921422E3,1.2216377E3,5.8176533E3,2.9202148E1,3.1762188E3,2.3574707E1,6.260614E2,3.5367188E1,5.06167E1,3.9272578E3,1.9565781E4,5.0478784E2,2.4885898E3,2.3465305E3,5.2687207E3,0E0,0E0,0E0,0E0,0E0,0E0,0E0,0E0,0E0,0E0,0E0,0E0,0E0,0E0,0E0,0E0,0E0,0E0,0E0,0E0,0E0,0E0,0E0,0E0],"parents":[2147483647,0,0,1,1,2,2,3,3,4,4,6,6,7,7,8,8,9,9,10,10,11,11,12,12,13,13,14,14,15,15,16,16,17,17,18,18,19,19,20,20,21,21,22,22,23,23,24,24],"right_children":[2,4,6,8,10,-1,12,14,16,18,20,22,24,26,28,30,32,34,36,38,40,42,44,46,48,-1,-1,-1,-1,-1,-1,-1,-1,-1,-1,-1,-1,-1,-1,-1,-1,-1,-1,-1,-1,-1,-1,-1,-1],"split_conditions":[3.881643E-3,3.895996E-3,9.9589545E-1,3.5216517E-3,9.96272E-1,5.8149822E-2,-1.3771507E0,3.582173E-3,9.9638736E-1,9.9632674E-1,8.201377E-1,8.201377E-1,3.895996E-3,3.7241504E-3,9.961085E-1,3.5149814E-3,5.4263663E0,7.434558E-3,9.961224E-1,-1.3771507E0,1.1611785E0,3.949488E-3,1.1611785E0,3.5216517E-3,9.96272E-1,-6.355196E-2,-5.7234716E-2,1.3254344E-1,-5.1205248E-2,1.16025165E-1,9.356276E-2,-1.9697424E-2,3.4524094E-2,9.694065E-2,8.59856E-2,1.1858709E-1,1.4979748E-1,-5.484059E-2,-2.2167748E-2,8.847561E-2,-1.98776E-2,-5.5263538E-2,-7.0584626E-3,6.9186665E-2,-2.878896E-2,-3.7191924E-2,1.678928E-2,6.830896E-2,2.2740759E-2],"split_indices":[38,31,38,33,31,0,13,32,33,49,0,0,31,49,32,28,16,49,28,13,0,59,0,33,31,0,0,0,0,0,0,0,0,0,0,0,0,0,0,0,0,0,0,0,0,0,0,0,0],"split_type":[0,0,0,0,0,0,0,0,0,0,0,0,0,0,0,0,0,0,0,0,0,0,0,0,0,0,0,0,0,0,0,0,0,0,0,0,0,0,0,0,0,0,0,0,0,0,0,0,0],"sum_hessian":[2.232113E5,1.2650783E5,9.670346E4,2.8163105E4,9.834473E4,1.5249456E4,8.145401E4,2.2410371E4,5.752734E3,6.5394697E3,9.180526E4,7.8866504E3,7.356736E4,9.392122E3,1.3018249E4,5.5523236E2,5.197502E3,5.8037563E3,7.357136E2,6.715012E4,2.4655143E4,3.9993816E3,3.8872688E3,8.482936E3,6.508442E4,6.69117E3,2.7009524E3,2.386599E2,1.2779589E4,2.5272328E2,3.025091E2,4.596331E3,6.0117053E2,4.828451E3,9.753051E2,5.350869E2,2.0062672E2,1.0998691E4,5.615142E4,5.30875E3,1.934639E4,3.3509192E3,6.4846246E2,8.2075726E2,3.0665115E3,5.198607E3,3.2843281E3,7.1223794E3,5.7962043E4],"tree_param":{"num_deleted":"0","num_feature":"60","num_nodes":"49","size_leaf_vector":"1"}},{"base_weights":[2.1928009E-3,-3.534711E-1,4.6805805E-1,-8.405194E-1,-2.1615389E-1,5.769023E-2,3.435813E-1,-1.0535609E0,-2.5209086E-2,1.9037809E0,-3.676236E-1,4.4647717E-1,-4.8424733E-1,-1.2184154E0,-9.352234E-1,2.0013294E0,-2.4638845E-1,1.8392527E0,2.3951964E0,-5.27803E-1,6.766979E-2,-4.0811247E-1,5.336938E-1,-6.188492E-1,4.9123448E-1,-6.215501E-2,-5.2820772E-2,1.2492373E-1,-5.0112277E-2,9.3723275E-2,1.5448111E-1,-2.6258422E-2,1.10268695E-2,8.8058636E-2,1.1937475E-1,1.1273066E-1,1.375783E-1,-5.3570677E-2,-2.1180166E-2,8.5665114E-2,-1.9106384E-2,-4.0555816E-2,1.916685E-4,1.3306047E-2,3.9161216E-2,-4.3377087E-2,-4.943819E-3,7.8905046E-2,-3.6390178E-2],"categories":[],"categories_nodes":[],"categories_segments":[],"categories_sizes":[],"default_left":[0,0,0,0,0,0,0,0,0,0,0,0,0,0,0,0,0,0,0,0,0,0,0,0,0,0,0,0,0,0,0,0,0,0,0,0,0,0,0,0,0,0,0,0,0,0,0,0,0],"id":28,"left_children":[1,3,5,7,9,-1,11,13,15,17,19,21,23,25,27,29,31,33,35,37,39,41,43,45,47,-1,-1,-1,-1,-1,-1,-1,-1,-1,-1,-1,-1,-1,-1,-1,-1,-1,-1,-1,-1,-1,-1,-1,-1],"loss_changes":[3.645674E4,8.344543E3,8.1306504E3,4.766287E3,3.1254475E4,0E0,6.8677295E3,4.232871E2,2.5490583E3,2.0141797E2,6.3339893E3,5.345127E3,1.170696E3,3.502832E1,2.9180771E3,7.14707E1,6.675282E2,2.4158008E2,3.1374512E1,3.7610488E3,1.8088904E4,1.102577E3,4.344375E3,1.01287476E3,1.4339103E3,0E0,0E0,0E0,0E0,0E0,0E0,0E0,0E0,0E0,0E0,0E0,0E0,0E0,0E0,0E0,0E0,0E0,0E0,0E0,0E0,0E0,0E0,0E0,0E0],"parents":[2147483647,0,0,1,1,2,2,3,3,4,4,6,6,7,7,8,8,9,9,10,10,11,11,12,12,13,13,14,14,15,15,16,16,17,17,18,18,19,19,20,20,21,21,22,22,23,23,24,24],"right_children":[2,4,6,8,10,-1,12,14,16,18,20,22,24,26,28,30,32,34,36,38,40,42,44,46,48,-1,-1,-1,-1,-1,-1,-1,-1,-1,-1,-1,-1,-1,-1,-1,-1,-1,-1,-1,-1,-1,-1,-1,-1],"split_conditions":[3.881643E-3,3.895996E-3,9.9589545E-1,3.5216517E-3,9.96272E-1,5.769023E-2,9.961062E-1,3.582173E-3,9.9638736E-1,9.9632674E-1,8.201377E-1,-1.3771507E0,4.217624E-3,3.5126598E-3,9.961085E-1,9.926644E-1,4.217624E-3,9.9630004E-1,9.961224E-1,-1.3771507E0,1.1611785E0,1.0139452E0,8.201377E-1,3.7124327E-3,9.963587E-1,-6.215501E-2,-5.2820772E-2,1.2492373E-1,-5.0112277E-2,9.3723275E-2,1.5448111E-1,-2.6258422E-2,1.10268695E-2,8.8058636E-2,1.1937475E-1,1.1273066E-1,1.375783E-1,-5.3570677E-2,-2.1180166E-2,8.5665114E-2,-1.9106384E-2,-4.0555816E-2,1.916685E-4,1.3306047E-2,3.9161216E-2,-4.3377087E-2,-4.943819E-3,7.8905046E-2,-3.6390178E-2],"split_indices":[38,31,38,33,31,0,26,32,33,49,0,13,22,52,32,47,22,47,28,13,0,14,0,21,22,0,0,0,0,0,0,0,0,0,0,0,0,0,0,0,0,0,0,0,0,0,0,0,0],"split_type":[0,0,0,0,0,0,0,0,0,0,0,0,0,0,0,0,0,0,0,0,0,0,0,0,0,0,0,0,0,0,0,0,0,0,0,0,0,0,0,0,0,0,0,0,0,0,0,0,0],"sum_hessian":[2.2002588E5,1.2477041E5,9.525548E4,2.7439727E4,9.733068E4,1.4633082E4,8.062239E4,2.1754865E4,5.684862E3,6.489772E3,9.084091E4,7.1709625E4,8.912766E3,9.086823E3,1.2668041E4,5.5860834E2,5.1262534E3,5.740699E3,7.4907294E2,6.640498E4,2.4435934E4,6.6403804E3,6.5069246E4,7.8323804E3,1.0803854E3,7.879513E3,1.2073107E3,2.4183807E2,1.2426203E4,5.0272717E2,5.5881207E1,3.20974E3,1.9165132E3,5.028726E3,7.119727E2,5.4242126E2,2.0665169E2,1.0679686E4,5.572529E4,5.2447266E3,1.9191207E4,3.3561309E3,3.2842495E3,3.1400445E4,3.36688E4,5.297855E3,2.5345256E3,5.710001E2,5.0938525E2],"tree_param":{"num_deleted":"0","num_feature":"60","num_nodes":"49","size_leaf_vector":"1"}},{"base_weights":[5.0434715E-4,-3.411685E-1,4.4808933E-1,-6.0424745E-1,7.8018624E-3,5.7259377E-2,3.2600763E-1,-9.684665E-1,-5.0420254E-1,5.782199E-2,-1.2234361E-1,-2.0350253E-2,5.65753E-1,-1.0048885E0,-6.300168E-1,-7.2629386E-1,-2.2634806E-1,-9.2265546E-1,-1.1332114E-3,1.3660641E-1,-6.3380957E-1,5.7661977E-2,4.4222182E-1,-5.2323885E-2,-3.7141543E-2,1.2724985E-1,-5.0270554E-2,-3.940871E-2,-1.0317222E-2,1.0049397E-1,-2.4237126E-2,-4.904718E-2,6.7249383E-3,-3.940582E-2,6.6123605E-3,-2.5120522E-3,8.924504E-2,-4.2547535E-2,-1.2931137E-2,9.972843E-3,3.866763E-2],"categories":[],"categories_nodes":[],"categories_segments":[],"categories_sizes":[],"default_left":[0,0,0,0,0,0,0,0,0,0,0,0,0,0,0,0,0,0,0,0,0,0,0,0,0,0,0,0,0,0,0,0,0,0,0,0,0,0,0,0,0],"id":29,"left_children":[1,3,5,7,9,-1,11,13,15,-1,17,19,21,23,25,27,29,31,33,35,37,-1,39,-1,-1,-1,-1,-1,-1,-1,-1,-1,-1,-1,-1,-1,-1,-1,-1,-1,-1],"loss_changes":[3.318404E4,1.1297301E4,7.9939043E3,2.5560957E3,7.9072896E3,0E0,6.6379355E3,1.8572949E2,3.3965986E3,0E0,4.608941E3,3.1486433E3,3.4278223E3,1.4796484E2,1.756467E3,9.8411523E2,1.4131222E4,3.8521484E2,4.331457E3,8.019494E3,5.4253174E2,0E0,3.1376763E3,0E0,0E0,0E0,0E0,0E0,0E0,0E0,0E0,0E0,0E0,0E0,0E0,0E0,0E0,0E0,0E0,0E0,0E0],"parents":[2147483647,0,0,1,1,2,2,3,3,4,4,6,6,7,7,8,8,10,10,11,11,12,12,13,13,14,14,15,15,16,16,17,17,18,18,19,19,20,20,22,22],"right_children":[2,4,6,8,10,-1,12,14,16,-1,18,20,22,24,26,28,30,32,34,36,38,-1,40,-1,-1,-1,-1,-1,-1,-1,-1,-1,-1,-1,-1,-1,-1,-1,-1,-1,-1],"split_conditions":[3.881643E-3,3.8409655E-3,9.9589545E-1,-7.654348E-1,9.962338E-1,5.7259377E-2,3.8409655E-3,3.5827844E-3,4.1286033E-3,5.782199E-2,-1.3771507E0,9.960797E-1,9.962338E-1,3.949488E-3,9.958115E-1,-1.7708613E-1,9.961265E-1,4.217624E-3,-8.0636805E-1,3.7522202E-3,3.5149814E-3,5.7661977E-2,3.5149814E-3,-5.2323885E-2,-3.7141543E-2,1.2724985E-1,-5.0270554E-2,-3.940871E-2,-1.0317222E-2,1.0049397E-1,-2.4237126E-2,-4.904718E-2,6.7249383E-3,-3.940582E-2,6.6123605E-3,-2.5120522E-3,8.924504E-2,-4.2547535E-2,-1.2931137E-2,9.972843E-3,3.866763E-2],"split_indices":[38,50,38,3,50,0,50,48,40,0,13,19,50,59,48,4,40,22,3,19,28,0,28,0,0,0,0,0,0,0,0,0,0,0,0,0,0,0,0,0,0],"split_type":[0,0,0,0,0,0,0,0,0,0,0,0,0,0,0,0,0,0,0,0,0,0,0,0,0,0,0,0,0,0,0,0,0,0,0,0,0,0,0,0,0],"sum_hessian":[2.1698977E5,1.2305417E5,9.393559E4,7.0161016E4,5.2893156E4,1.3997896E4,7.9937695E4,1.5117228E4,5.504379E4,5.382286E3,4.7510867E4,3.2698863E4,4.7238836E4,1.3646682E4,1.4705457E3,3.059075E4,2.445304E4,6.2483677E3,4.12625E4,2.6037752E4,6.6611123E3,8.205756E3,3.903308E4,1.1774972E4,1.8717106E3,1.5487366E2,1.315672E3,2.733682E4,3.2539292E3,2.5321584E3,2.192088E4,5.921924E3,3.2644394E2,5.97911E3,3.528339E4,2.3387555E4,2.650198E3,4.218417E3,2.4426956E3,2.2522527E4,1.651055E4],"tree_param":{"num_deleted":"0","num_feature":"60","num_nodes":"41","size_leaf_vector":"1"}},{"base_weights":[1.6142543E-3,-3.2880375E-1,4.3497524E-1,-5.8901745E-1,1.1071408E-2,5.6857433E-2,3.156723E-1,-3.788622E-1,-7.6822126E-1,5.7382204E-2,-1.1292154E-1,4.1484267E-1,-4.732343E-1,-5.514477E-1,-1.8278427E-2,-8.965689E-1,-6.147089E-1,-7.3710585E-1,3.6462978E-2,4.8858854E-1,-5.7263976E-1,-6.568463E-1,3.9771208E-1,-4.4702675E-2,-2.1571888E-2,7.227522E-2,-9.257744E-3,-4.771998E-2,-2.5117254E-2,1.4774604E-1,-3.5568096E-2,-5.8182616E-2,8.124698E-3,8.952748E-2,-6.1370637E-3,2.0257045E-2,6.9722295E-2,-4.942977E-2,-7.975909E-3,-2.2936694E-2,-6.94456E-2,4.5181427E-2,-3.3080056E-2],"categories":[],"categories_nodes":[],"categories_segments":[],"categories_sizes":[],"default_left":[0,0,0,0,0,0,0,0,0,0,0,0,0,0,0,0,0,0,0,0,0,0,0,0,0,0,0,0,0,0,0,0,0,0,0,0,0,0,0,0,0,0,0],"id":30,"left_children":[1,3,5,7,9,-1,11,13,15,-1,17,19,21,23,25,27,29,31,33,35,37,39,41,-1,-1,-1,-1,-1,-1,-1,-1,-1,-1,-1,-1,-1,-1,-1,-1,-1,-1,-1,-1],"loss_changes":[3.0601613E4,1.0724148E4,7.7446543E3,2.586162E3,7.4103276E3,0E0,6.1830815E3,1.9672031E3,7.2978906E2,0E0,4.420759E3,5.1127305E3,1.4115972E3,8.7862354E2,2.500013E3,4.5973535E2,5.826756E3,3.5133682E3,1.0683537E4,4.93754E3,8.3825305E2,1.0565283E3,8.244468E2,0E0,0E0,0E0,0E0,0E0,0E0,0E0,0E0,0E0,0E0,0E0,0E0,0E0,0E0,0E0,0E0,0E0,0E0,0E0,0E0],"parents":[2147483647,0,0,1,1,2,2,3,3,4,4,6,6,7,7,8,8,10,10,11,11,12,12,13,13,14,14,15,15,16,16,17,17,18,18,19,19,20,20,21,21,22,22],"right_children":[2,4,6,8,10,-1,12,14,16,-1,18,20,22,24,26,28,30,32,34,36,38,40,42,-1,-1,-1,-1,-1,-1,-1,-1,-1,-1,-1,-1,-1,-1,-1,-1,-1,-1,-1,-1],"split_conditions":[3.881643E-3,3.8409655E-3,9.9589545E-1,-3.2131484E-1,9.962338E-1,5.6857433E-2,9.961062E-1,3.5149814E-3,1.4173499E-1,5.7382204E-2,3.895996E-3,9.958928E-1,-1.7708613E-1,3.895996E-3,9.961224E-1,-1.7708613E-1,4.7233793E-1,3.5216517E-3,9.96272E-1,3.782203E-3,8.201377E-1,9.960797E-1,9.4726926E-1,-4.4702675E-2,-2.1571888E-2,7.227522E-2,-9.257744E-3,-4.771998E-2,-2.5117254E-2,1.4774604E-1,-3.5568096E-2,-5.8182616E-2,8.124698E-3,8.952748E-2,-6.1370637E-3,2.0257045E-2,6.9722295E-2,-4.942977E-2,-7.975909E-3,-2.2936694E-2,-6.94456E-2,4.5181427E-2,-3.3080056E-2],"split_indices":[38,50,38,1,50,0,26,28,0,0,31,29,4,31,28,4,0,33,31,29,0,19,4,0,0,0,0,0,0,0,0,0,0,0,0,0,0,0,0,0,0,0,0],"split_type":[0,0,0,0,0,0,0,0,0,0,0,0,0,0,0,0,0,0,0,0,0,0,0,0,0,0,0,0,0,0,0,0,0,0,0,0,0,0,0,0,0,0,0],"sum_hessian":[2.1371095E5,1.2125771E5,9.245324E4,6.867688E4,5.2580824E4,1.3425736E4,7.90275E4,3.16102E4,3.7066684E4,5.171193E3,4.740963E4,7.020303E4,8.824474E3,2.1377703E4,1.0232496E4,2.0185383E4,1.6881303E4,9.154554E3,3.825508E4,6.532502E4,4.878012E3,7.288224E3,1.5362499E3,5.5440454E3,1.5833658E4,1.0463768E3,9.186119E3,1.7601854E4,2.5835295E3,4.442565E2,1.6437045E4,6.2098506E3,2.944703E3,3.1823386E3,3.507274E4,5.981619E4,5.5088257E3,2.4299746E3,2.4480374E3,5.7372344E3,1.5509896E3,1.0397998E3,4.9645007E2],"tree_param":{"num_deleted":"0","num_feature":"60","num_nodes":"43","size_leaf_vector":"1"}},{"base_weights":[2.380867E-3,-3.1579593E-1,4.186213E-1,-5.6881976E-1,1.1893187E-2,5.6478765E-2,3.018194E-1,